{"h.weight": [[[[-0.23382341861724854, -0.26832008361816406, 0.12445937842130661], [0.11952565610408783, -0.12299976497888565, -0.2403755933046341], [0.009082945995032787, 0.2723930776119232, 0.16936145722866058]]], [[[0.008113154210150242, 0.04050631821155548, 0.17792105674743652], [-0.38348934054374695, 0.004427690990269184, -0.41722264885902405], [0.176559716463089, -0.07558093965053558, 0.18530282378196716]]], [[[0.1725519299507141, 0.028942545875906944, -0.20145782828330994], [0.1634082794189453, -0.06370825320482254, -0.29433366656303406], [-0.21889786422252655, -0.2894948422908783, 0.26145610213279724]]], [[[0.16060656309127808, 0.2816537022590637, 0.12848033010959625], [-0.15939882397651672, -0.021212100982666016, 0.10640151798725128], [-0.010355047881603241, -0.40601497888565063, 0.31631913781166077]]], [[[0.3123210072517395, 0.07457491010427475, -0.2399962842464447], [-0.17823798954486847, 0.4606289267539978, -0.25940024852752686], [-0.1262497454881668, 0.4113231897354126, -0.22222834825515747]]], [[[-0.10264989733695984, 0.12190786004066467, -0.2433886080980301], [-0.06387083232402802, -0.2501472234725952, -0.21195088326931], [-0.11162333935499191, -0.22348561882972717, 0.32568106055259705]]], [[[-0.1756875067949295, 0.21653544902801514, -0.005963391624391079], [-0.002416012343019247, 0.42525357007980347, -0.2913491725921631], [0.13560637831687927, -0.2756662964820862, -0.26941609382629395]]], [[[0.18252435326576233, -0.19720065593719482, -0.12330882251262665], [0.2434319704771042, 0.3464357554912567, 0.2916227877140045], [0.24830025434494019, -0.21310319006443024, 0.25262248516082764]]], [[[-0.3434130847454071, -0.22397610545158386, 0.26907867193222046], [0.13912084698677063, -0.009479260072112083, -0.25544607639312744], [-0.36585676670074463, 0.41262826323509216, 0.2927761673927307]]], [[[0.051204439252614975, 0.18843309581279755, -0.32602977752685547], [0.27594396471977234, -0.04538070410490036, -0.19943378865718842], [0.0447564460337162, 0.2940432131290436, 0.19719095528125763]]], [[[0.11115570366382599, -0.31971150636672974, 0.12203089147806168], [0.006293125916272402, -0.3100898563861847, -0.3258903920650482], [0.0744987204670906, 0.23389044404029846, -0.05852852761745453]]], [[[0.2550952434539795, 0.24398396909236908, 0.15891556441783905], [-0.2222709208726883, 0.1813073605298996, -0.2358807921409607], [0.2383284866809845, -0.29960915446281433, -0.2795774042606354]]], [[[0.25486648082733154, -0.36450836062431335, 0.3011435568332672], [0.21671582758426666, -0.08863964676856995, -0.2507830560207367], [-0.30340468883514404, 0.009020472876727581, -0.09443725645542145]]], [[[-0.03517457842826843, 0.23420356214046478, -0.2771371901035309], [0.1600051075220108, -0.2000323235988617, 0.14414027333259583], [-0.1963498890399933, -0.28357505798339844, 0.2600632607936859]]], [[[0.12776364386081696, -0.08123403787612915, 0.16259850561618805], [-0.3077245056629181, -0.2745438814163208, 0.23945683240890503], [0.26811182498931885, 0.09172505885362625, 0.06157543137669563]]], [[[0.021821437403559685, 0.11841394752264023, 0.11774206161499023], [0.19379965960979462, -0.2270422726869583, -0.3494506776332855], [0.29335325956344604, -0.13186709582805634, -0.22418993711471558]]], [[[0.03748210147023201, -0.27541759610176086, -0.24348030984401703], [0.15042860805988312, 0.5267379879951477, 0.028051098808646202], [0.08073727786540985, -0.23665158450603485, 0.005369443912059069]]], [[[0.15465082228183746, -0.03805886581540108, -0.056304410099983215], [-0.156267449259758, 0.5460937023162842, -0.23483406007289886], [0.09361936897039413, 0.044744689017534256, 0.202301025390625]]], [[[-0.22830437123775482, -0.09920806437730789, 0.27627575397491455], [0.14232486486434937, 0.06971992552280426, -0.30592042207717896], [0.25498539209365845, -0.1698937714099884, 0.03762638196349144]]], [[[-0.227431520819664, 0.19919230043888092, -0.3332798480987549], [-0.0065251728519797325, 0.3775797486305237, -0.4546441435813904], [0.22264564037322998, -0.15875652432441711, 0.2865777909755707]]], [[[-0.01877094991505146, -0.2328246533870697, 0.24765513837337494], [0.2015571892261505, -0.23560908436775208, -0.29366838932037354], [-0.014596415683627129, -0.09556557983160019, -0.22917811572551727]]], [[[0.233928844332695, 0.3108210265636444, 0.19989891350269318], [0.28429466485977173, -0.006365879438817501, 0.14804983139038086], [0.2993857264518738, -0.08328281342983246, -0.09889804571866989]]], [[[0.08717416971921921, 0.09890855848789215, -0.3297343850135803], [-0.484735369682312, 0.374973863363266, 0.12295252084732056], [0.2530563175678253, -0.08228493481874466, -0.04777885973453522]]], [[[0.19379183650016785, 0.4549892246723175, 0.20913593471050262], [-0.29519712924957275, -0.4408591389656067, -0.3320617079734802], [-0.1245667040348053, 0.3617325723171234, 0.021242665126919746]]]], "h.bias": [-0.04665391519665718, 0.1642836630344391, 0.20925211906433105, -0.17764675617218018, -0.236663818359375, -0.10558662563562393, 0.09126836806535721, 0.17018145322799683, 0.03328289836645126, -0.22226956486701965, 0.12697482109069824, 0.01761462539434433, 0.1691320240497589, -0.06253049522638321, -0.15586845576763153, 0.05790546163916588, -0.021505309268832207, -0.23103182017803192, -0.04609784483909607, 0.0796126201748848, -0.11817775666713715, -0.3248690068721771, 0.0672946646809578, -0.05049539729952812], "b.0.c1.weight": [[[[0.03195719048380852, 0.05440841615200043, -0.015203183516860008], [-0.034582097083330154, 0.039015818387269974, -0.011737736873328686], [-0.047633055597543716, -0.06381876021623611, -0.025623127818107605]], [[0.01603199541568756, -0.16503341495990753, -0.12336766719818115], [-0.01903071627020836, 0.11100006848573685, -0.012193646281957626], [0.00032594340154901147, -0.03655542433261871, -0.02744615636765957]], [[-0.02741295099258423, -0.1447029560804367, -0.02527027763426304], [-0.06625718623399734, 0.2320270836353302, -0.05861647054553032], [-0.05781296640634537, 0.06576159596443176, -0.09702412784099579]], [[0.1856996864080429, -0.1414615362882614, 0.10052032768726349], [0.07013485580682755, -0.09837557375431061, 0.024431422352790833], [0.021796127781271935, -0.06352949887514114, -0.11431187391281128]], [[0.00037788800545968115, 0.045107461512088776, 0.09422598779201508], [-0.13513809442520142, 0.08999353647232056, -0.1315341591835022], [-0.02922125719487667, 0.00953411590307951, 7.863986684242263e-05]], [[0.01980508305132389, -0.07832353562116623, 0.04433469846844673], [-0.07653606683015823, 0.02290244773030281, 0.007340890355408192], [0.017890457063913345, 0.014816518872976303, -0.0347399041056633]], [[-0.0900566503405571, 0.003077627392485738, -0.028869271278381348], [-0.06166520714759827, 0.1272592544555664, -0.17734770476818085], [0.054308243095874786, 0.04546185955405235, -0.024149814620614052]], [[0.0001499784120824188, -0.0389142781496048, -0.03870315104722977], [0.09448282420635223, -0.007482276298105717, -0.08874856680631638], [0.050995368510484695, -0.036122824996709824, -0.042870987206697464]], [[-0.049153879284858704, 0.036436546593904495, -0.03284267336130142], [-0.019135944545269012, 0.02075745165348053, -0.043692491948604584], [0.08224492520093918, 0.03772349655628204, 0.06690730899572372]], [[0.012999629601836205, 0.07209480553865433, -0.00633515790104866], [-0.13130418956279755, 0.00741382222622633, -0.03955315425992012], [-0.04850848391652107, 0.13063856959342957, -0.11499274522066116]], [[-0.11873428523540497, 0.045184943825006485, -0.0703963190317154], [-0.18598556518554688, 0.011239247396588326, 0.11059698462486267], [-0.004041810054332018, 0.01707935519516468, 0.03367506340146065]], [[-0.04890706390142441, -0.02376781776547432, -0.012506906874477863], [-0.020429231226444244, 0.119686558842659, -0.004694188944995403], [-0.01216038502752781, -0.0792028158903122, -0.025899620726704597]], [[-0.019589213654398918, -0.01788346655666828, 0.05369790643453598], [-0.06088806688785553, 0.15074563026428223, -0.05472513660788536], [0.11330179125070572, -0.2027069628238678, -0.04613003507256508]], [[0.0756363794207573, 0.00025287672178819776, 0.08621677756309509], [-0.031133390963077545, -0.027880705893039703, 0.07964301109313965], [0.012249314226210117, 0.06267058849334717, -0.038308244198560715]], [[0.046479035168886185, -0.019650712609291077, -0.06727739423513412], [-0.026452314108610153, -0.26898452639579773, 0.10468949377536774], [0.03301767632365227, -0.06597784161567688, 0.06768615543842316]], [[-0.16153033077716827, 0.004984317347407341, -0.06347702443599701], [-0.17561951279640198, 0.14113333821296692, 0.021998494863510132], [0.0533403642475605, 0.01796560548245907, -0.021004704758524895]], [[0.10833419859409332, 0.03654751926660538, 0.018614521250128746], [0.180711567401886, 0.15462557971477509, -0.1848878115415573], [-0.08785402029752731, 0.05863998085260391, 0.025373218581080437]], [[0.13680621981620789, 0.13158783316612244, 0.07741697877645493], [-0.21347351372241974, 0.21731875836849213, -0.19822825491428375], [-0.08055941015481949, 0.07646680623292923, 0.0074630253948271275]], [[0.0024124043993651867, -0.009520012885332108, -0.044621791690588], [-0.20445121824741364, 0.13146065175533295, -0.13769523799419403], [0.024963965639472008, -0.09128828346729279, 0.15236981213092804]], [[0.04537610709667206, 0.049132026731967926, -0.03441574051976204], [-0.13872461020946503, 0.2589479386806488, -0.05445704236626625], [-0.06255839020013809, 0.05781937390565872, -0.0029185330495238304]], [[-0.01954047568142414, 0.043864406645298004, 0.020015405490994453], [-0.036683693528175354, 0.03409360721707344, 0.06580471992492676], [0.06945358961820602, -0.03767889738082886, 0.07766379415988922]], [[0.09508215636014938, 0.09900683909654617, -0.050968945026397705], [-0.019400382414460182, -0.012955723330378532, -0.09089657664299011], [0.05941104516386986, -0.023909712210297585, -0.07205124199390411]], [[-0.0928739681839943, -0.0711551085114479, -0.003738677827641368], [0.020070726051926613, 0.040376462042331696, -0.0521274171769619], [-0.045178309082984924, 0.07177171111106873, 0.05972383916378021]], [[-0.14674066007137299, 0.07845678925514221, 0.01692810282111168], [-0.19297169148921967, -0.10286576300859451, 0.07055211067199707], [-0.017416073009371758, 0.10066349059343338, -0.15799252688884735]]], [[[0.017186809331178665, 0.047024525701999664, 0.04996329918503761], [-0.04099898040294647, 0.02424432337284088, -0.0048545654863119125], [0.0008092555217444897, -0.08702250570058823, 0.017162011936306953]], [[-0.04188933223485947, 0.03646619990468025, -0.04911750555038452], [-0.10099278390407562, 0.0007680430426262319, 0.06344086676836014], [0.05468106269836426, 0.037363216280937195, 0.01612790860235691]], [[0.0691613033413887, -0.08096504211425781, -0.17185911536216736], [-0.008202165365219116, -0.1241440623998642, 0.1729060709476471], [-0.047585174441337585, 0.16239498555660248, -0.11921898275613785]], [[-0.1550854742527008, -0.007605318445712328, -0.010519127361476421], [-0.19427961111068726, 0.010694132186472416, 0.03524087369441986], [-0.06383737921714783, 0.17635269463062286, 0.11738533526659012]], [[0.05173264443874359, 0.04785378277301788, 0.013139595277607441], [0.06091277301311493, -0.09336140006780624, 0.0361705981194973], [-0.012267771176993847, -0.03699300438165665, 0.1251796931028366]], [[0.010134400799870491, -0.04479297623038292, -0.0130823515355587], [-0.057863593101501465, 0.011292565613985062, 0.0596851222217083], [0.016017533838748932, 0.003929294180124998, 0.03912761062383652]], [[0.13210055232048035, 0.1259981393814087, 0.05563843995332718], [0.011921795085072517, 0.03617437183856964, 0.0624614842236042], [0.17414359748363495, 0.03883344307541847, -0.21675392985343933]], [[-0.011301035061478615, -0.05673087015748024, 0.010836707428097725], [0.0038675228133797646, -0.0034536768216639757, -0.006920606829226017], [-0.028928764164447784, 0.0495137944817543, -0.018647069111466408]], [[-0.030501915141940117, 0.08979039639234543, 0.08835585415363312], [-0.012573698535561562, -0.05515073984861374, 0.0831209346652031], [0.25015655159950256, -0.09010392427444458, -0.03255409747362137]], [[0.029930394142866135, -0.1387479156255722, 0.027393782511353493], [0.03485209867358208, -0.09657998383045197, 0.07784833759069443], [0.03391936793923378, 0.037811748683452606, -0.0358036607503891]], [[0.11611251533031464, -0.06108550727367401, 0.05317937582731247], [0.12912265956401825, -0.021319588646292686, 0.009322420693933964], [-0.020386740565299988, -0.024623051285743713, -0.018046988174319267]], [[1.1074220310547389e-05, -0.04961611330509186, 0.020694909617304802], [-0.02020779624581337, -0.015063528902828693, 0.05903182923793793], [-0.07936913520097733, 0.0893264040350914, -0.020342867821455002]], [[-0.05535310134291649, -0.04572230949997902, 0.04065893962979317], [-0.016323523595929146, -0.12565898895263672, 0.16726188361644745], [-0.03279094398021698, -0.07207097858190536, 0.170928955078125]], [[0.047142088413238525, -0.042954571545124054, -0.05370979756116867], [-0.10258723050355911, -0.03955696150660515, 0.014262464828789234], [0.02932392619550228, 0.2036140114068985, 0.05182035639882088]], [[-0.10577059537172318, -0.012848172336816788, -0.1141795888543129], [-0.015382200479507446, -0.037551380693912506, -0.09727459400892258], [-0.12253083288669586, -0.10520770400762558, 0.17725418508052826]], [[0.09520283341407776, -0.09285958111286163, 0.08637887984514236], [0.07307320088148117, 0.0636039599776268, -0.000938494224101305], [0.019713902845978737, 0.027127400040626526, -0.09190083295106888]], [[0.03455352783203125, 0.0806044414639473, -0.11045337468385696], [0.0061509576626122, -0.0819060355424881, 0.08009640872478485], [-0.021871430799365044, -0.04267725721001625, -0.15444940328598022]], [[-0.08830458670854568, 0.07552823424339294, -0.04762061685323715], [0.11688867211341858, -0.12287291139364243, 0.19779852032661438], [0.10981003195047379, 0.03091040626168251, -0.03239576518535614]], [[0.17122367024421692, -0.04478731006383896, 0.04560036212205887], [0.023955736309289932, -0.035158827900886536, -0.07697204500436783], [0.23529937863349915, -0.02231634221971035, -0.18634448945522308]], [[0.051574163138866425, 0.038585130125284195, -0.12217801809310913], [0.059674862772226334, 0.007946349680423737, 0.11529020965099335], [0.12634047865867615, 0.15564967691898346, -0.25786542892456055]], [[0.012125777080655098, -0.09637147188186646, -0.024710575118660927], [0.030841702595353127, -0.022129934281110764, -0.05347325652837753], [0.0781840980052948, -0.030712902545928955, 0.04380650445818901]], [[0.019227007403969765, -0.016721369698643684, 0.09205073118209839], [-0.018041880801320076, 0.04697323217988014, -0.040057819336652756], [-0.014432775788009167, 0.07872698456048965, 0.03146444633603096]], [[0.007630454376339912, 0.06306112557649612, 0.010041781701147556], [0.09962166100740433, 0.10263349115848541, -0.05513075739145279], [-0.07126788049936295, -0.05386684089899063, -0.04786043241620064]], [[0.023498080670833588, -0.015077583491802216, 0.004640242084860802], [0.043541453778743744, 0.004564024042338133, 0.08405913412570953], [0.06491827219724655, 0.11538896709680557, 0.22268609702587128]]], [[[-0.018606126308441162, 0.03302570432424545, 0.05928348749876022], [0.00868950691074133, -0.043754592537879944, -0.031184472143650055], [0.08702422678470612, -0.12144607305526733, 9.552977280691266e-05]], [[-0.08862271159887314, -0.14881694316864014, -0.02187330089509487], [-0.15945519506931305, 0.12167330831289291, -0.13286441564559937], [-0.006372158415615559, 0.041117798537015915, 0.08398693054914474]], [[-0.011754650622606277, -0.07024041563272476, -0.02076192945241928], [-0.07249292731285095, -0.03789423778653145, 0.07781379669904709], [0.009931244887411594, -0.010142511688172817, -0.02583952434360981]], [[-0.04898582026362419, -0.026880420744419098, 0.012504317797720432], [0.11499027907848358, -0.11588405072689056, -0.13751454651355743], [0.051340192556381226, 0.06504946947097778, 0.12974834442138672]], [[-0.0027706206310540438, 0.07749328017234802, 0.10411354899406433], [-0.15827833116054535, 0.3311172425746918, -0.14632374048233032], [-0.02014131098985672, 0.058418191969394684, -0.07410448044538498]], [[0.02037166990339756, 0.04915768653154373, 0.041675105690956116], [0.0536518320441246, -0.1907227486371994, -0.03538738936185837], [0.05708497762680054, 0.032704904675483704, -0.055645063519477844]], [[0.0880158320069313, -0.07455410808324814, -0.02485116384923458], [-0.12520384788513184, 0.258674293756485, 0.057438820600509644], [-0.19904041290283203, 0.19662030041217804, 0.032317064702510834]], [[-0.07002819329500198, -0.12823143601417542, 0.0396326519548893], [-0.022949444130063057, 0.1343109905719757, 0.1196463406085968], [-0.03916049748659134, -0.1067967638373375, 0.02168077602982521]], [[-0.09358762204647064, -0.030269596725702286, -0.11595412343740463], [-0.03536677733063698, 0.08379337936639786, 0.07996024191379547], [-0.010498005896806717, 0.11427382379770279, -0.14256951212882996]], [[-0.14469213783740997, 0.05762527510523796, -0.06995179504156113], [-0.060704007744789124, -0.17552350461483002, 0.10741224884986877], [-0.004500139504671097, 0.016034262254834175, 0.030103038996458054]], [[-0.028833987191319466, -0.017867401242256165, -0.03899192437529564], [0.04616036266088486, -0.20799697935581207, -0.028832651674747467], [0.10216958820819855, -0.19205117225646973, 0.042611002922058105]], [[0.048171285539865494, -0.07674191892147064, -0.022844260558485985], [-0.07966947555541992, 0.04735932871699333, -0.09559481590986252], [-0.08879176527261734, 0.09406828880310059, 0.11327602714300156]], [[-0.0031900168396532536, -0.06038900464773178, 0.03799625113606453], [-0.04839956760406494, 0.015888014808297157, 0.07193809002637863], [0.053573720157146454, -0.28085196018218994, 0.13355711102485657]], [[0.0316266193985939, 0.08497311174869537, 0.03254714235663414], [0.14050114154815674, -0.35587364435195923, 0.027307894080877304], [-0.009594190865755081, 0.05285007134079933, -0.04183608293533325]], [[0.01696109026670456, 0.04487423971295357, -0.020670786499977112], [0.17095406353473663, -0.17982661724090576, -0.29281219840049744], [0.04972824081778526, -0.17266304790973663, 0.10311097651720047]], [[0.08951745927333832, -0.046271245926618576, 0.03073863685131073], [0.03423216566443443, -0.2892206311225891, 0.12510110437870026], [0.034990377724170685, -0.07800082862377167, 0.004536597523838282]], [[0.011418160051107407, -0.06364644318819046, 0.012939877808094025], [-0.047641243785619736, 0.2695404887199402, 0.07055169343948364], [0.017723433673381805, -0.1746799647808075, 0.03281470015645027]], [[-0.08697464317083359, -0.05529150739312172, 0.07860357314348221], [-0.2953454554080963, 0.6077203154563904, -0.11711601912975311], [0.04786202684044838, -0.08461149781942368, -0.0160441342741251]], [[0.16638629138469696, -0.062066368758678436, 0.009612043388187885], [-0.014198259450495243, -0.15436626970767975, 0.20295748114585876], [0.044672150164842606, -0.07974204421043396, -0.05062463879585266]], [[-0.08189775794744492, -0.11569429188966751, -0.04455570876598358], [-0.19479431211948395, 0.24681931734085083, 0.021258585155010223], [-0.08706220984458923, 0.19016264379024506, -0.06004222109913826]], [[0.03404742479324341, 0.07677138596773148, -0.0547487735748291], [0.11838304996490479, -0.13702023029327393, -0.05745227262377739], [0.12321462482213974, -0.14589890837669373, -0.02746441960334778]], [[0.02450758032500744, -0.058748554438352585, 0.01641829125583172], [0.10209589451551437, -0.23720037937164307, 0.10639578104019165], [-0.07843247056007385, 0.0016505722887814045, 0.04924970865249634]], [[-0.03547510877251625, -0.07893894612789154, -0.02465013973414898], [-0.12911920249462128, 0.3052137494087219, -0.10132959485054016], [-0.06836792826652527, 0.04145500436425209, 0.08542957901954651]], [[-0.0610283799469471, 0.08967303484678268, -0.07341817021369934], [0.07278688251972198, -0.23551666736602783, -0.14024420082569122], [-0.04174136742949486, 0.21943672001361847, -0.08405653387308121]]], [[[0.02430788427591324, -0.08883602917194366, 0.05118665471673012], [0.0013698842376470566, -0.018922289833426476, -0.07492192089557648], [0.031009860336780548, -0.028131283819675446, 0.03406240791082382]], [[-0.1536487340927124, 0.14291264116764069, -0.10516905039548874], [0.17743737995624542, -0.14854225516319275, 0.16570831835269928], [-0.12605811655521393, -0.09914498776197433, -0.1478450894355774]], [[-0.030442338436841965, 0.2877833843231201, -0.08834419399499893], [0.11032333225011826, -0.03408437594771385, -0.11502678692340851], [-0.2060515135526657, 0.004439986776560545, -0.14575502276420593]], [[-0.11247456073760986, 0.20314852893352509, 0.016242122277617455], [-0.12107793241739273, -0.1627482771873474, 0.04927294701337814], [-0.04159139096736908, 0.04753182455897331, -0.06269732862710953]], [[-0.02244141884148121, -0.08595646172761917, 0.05732718110084534], [0.18175426125526428, -0.2459944784641266, 0.07207062840461731], [-0.008062469772994518, 0.027639901265501976, 0.0828084647655487]], [[0.013110131025314331, 0.06834874302148819, 0.05422811210155487], [-0.04976623132824898, 0.039201769977808, -0.018014322966337204], [-0.018712997436523438, -0.03238290920853615, -0.0306325051933527]], [[-0.004577260930091143, 0.1694086492061615, -0.051910605281591415], [0.05933819338679314, -0.20439009368419647, 0.14674468338489532], [0.03943273052573204, 0.14398778975009918, -0.0738150030374527]], [[-0.022332118824124336, 0.10198645293712616, -0.025266991928219795], [-0.02099895291030407, -0.01283884234726429, 0.08473232388496399], [-0.05624639242887497, -0.013659427873790264, -0.01523885503411293]], [[-0.02189679443836212, -0.33664292097091675, 0.24483124911785126], [-0.015372819267213345, 0.10422176122665405, -0.2613968551158905], [0.0951460525393486, -0.176463320851326, 0.04002150148153305]], [[0.1029953733086586, -0.1190594732761383, 0.023848839104175568], [-0.11124669015407562, -0.030493030324578285, -0.14585170149803162], [0.12757384777069092, -0.024418603628873825, 0.14042121171951294]], [[-0.05808132514357567, -0.12022404372692108, -0.035883158445358276], [0.17275197803974152, 0.18136195838451385, -0.07442404329776764], [-0.11494190245866776, 0.0074958461336791515, -0.046504028141498566]], [[-0.007465723901987076, 0.11066069453954697, -0.12818117439746857], [0.13335661590099335, -0.22211143374443054, 0.11499975621700287], [-0.14906369149684906, 0.09247855097055435, -0.02014143019914627]], [[-0.005856807809323072, -0.07812704890966415, 0.09032747894525528], [0.23959790170192719, -0.030931958928704262, -0.09925787895917892], [-0.22848984599113464, 0.10267075896263123, 0.05551416799426079]], [[0.10779471695423126, 0.04267566278576851, 0.035794153809547424], [-0.17012321949005127, 0.024033011868596077, -0.13249550759792328], [0.002989246044307947, -0.06010245904326439, 0.04497141018509865]], [[-0.16531547904014587, -0.0680948868393898, 0.0015949519583955407], [-0.07618618756532669, 0.0980055183172226, 0.051489848643541336], [-0.14693619310855865, -0.10629095882177353, -0.10926128923892975]], [[0.041215747594833374, 0.014458784833550453, -0.09959051758050919], [0.036580007523298264, 0.02943839132785797, -0.11841882765293121], [-0.04115668311715126, 0.05935867130756378, -0.005492670461535454]], [[-0.022623106837272644, 0.25068458914756775, -0.03606641665101051], [0.07530443370342255, -0.4398804306983948, 0.14161765575408936], [-0.002461296273395419, 0.3800695836544037, -0.0887005552649498]], [[-0.20368081331253052, 0.22445878386497498, 0.0010488209081813693], [0.15216825902462006, -0.7755800485610962, 0.318614661693573], [-0.023695001378655434, 0.24696335196495056, -0.01754843257367611]], [[-0.0763627216219902, 0.026979807764291763, 0.02950836904346943], [0.00896552111953497, -0.2455803006887436, -0.06824202835559845], [0.013428286649286747, 0.18279123306274414, 0.023009654134511948]], [[-0.14074648916721344, 0.07860056310892105, -0.07711154967546463], [0.08321057260036469, -0.2599005401134491, 0.030147811397910118], [0.05099865049123764, 0.0458783283829689, -0.13546685874462128]], [[0.06465177237987518, 0.0014631602680310607, -0.00376797909848392], [-0.03406643122434616, -0.0032041294034570456, -0.012263651937246323], [0.05440030246973038, -0.014072208665311337, 0.033407680690288544]], [[0.048719439655542374, 0.051685791462659836, -0.019599752500653267], [-0.12787315249443054, 0.0304144024848938, -0.07338915020227432], [0.01770002208650112, 0.0775904580950737, 0.06964389979839325]], [[-0.10417383909225464, 0.1707318127155304, -0.10879930853843689], [0.013888939283788204, -0.18479934334754944, 0.15630598366260529], [-0.07741295546293259, 0.08760753273963928, -0.1643127053976059]], [[-0.011866705492138863, -0.07436426728963852, 0.028573891147971153], [0.02812894433736801, 0.21766294538974762, -0.06241414695978165], [0.0071701668202877045, -0.2234724760055542, -0.004938697908073664]]], [[[-0.02927737683057785, -0.044297222048044205, 0.06194585561752319], [0.06397668272256851, -0.004513346590101719, 0.013086711056530476], [-0.05690441280603409, -0.026143129914999008, 0.10103309154510498]], [[0.01235779095441103, -0.06793306767940521, 0.004534892737865448], [0.12221816182136536, -0.052512671798467636, -0.13023245334625244], [0.0725504606962204, 0.10317967087030411, -0.04873713478446007]], [[0.010159851983189583, -0.023359807208180428, -0.10371094197034836], [0.13854873180389404, -0.043563518673181534, -0.12588053941726685], [0.08044115453958511, -0.0020110048353672028, -0.010548459365963936]], [[-0.07456018030643463, 0.0011702076299116015, 0.1293497383594513], [-0.13199648261070251, 0.021447032690048218, -0.06431519240140915], [0.006745016202330589, 0.07411952316761017, -0.003440385451540351]], [[0.22832468152046204, -0.06694159656763077, -0.017611736431717873], [0.009922225028276443, -0.08058277517557144, 0.0985778346657753], [0.1849679946899414, -0.013757516629993916, 0.1666494905948639]], [[-0.00956210307776928, 0.0035059514921158552, 0.0741477981209755], [-0.021105019375681877, -0.07696962356567383, -0.04139770194888115], [0.043775420635938644, -0.014341779053211212, 0.05194355547428131]], [[0.05141690745949745, 0.02243201434612274, -0.03501836583018303], [0.09249728918075562, -0.04779638722538948, 0.06368433684110641], [-0.11994068324565887, 0.0587942898273468, -0.06282239407300949]], [[-0.0020323777571320534, 0.004724505357444286, 0.022678207606077194], [-0.027789421379566193, 0.0222033578902483, -0.07168380171060562], [0.05221756547689438, 0.04849911853671074, -0.0586756132543087]], [[-0.02023816481232643, -0.09257923066616058, 0.09500745683908463], [0.004528062883764505, -0.12134929746389389, 0.09783629328012466], [-0.0351155661046505, -0.11228811740875244, 0.14975550770759583]], [[-0.03754227235913277, -0.023804346099495888, -0.1570669710636139], [0.0554903969168663, -0.06273115426301956, 0.004818132147192955], [0.098816879093647, -0.014276552945375443, 0.11573904752731323]], [[0.05269274860620499, 0.039712414145469666, -0.06561186909675598], [0.04399595409631729, -0.025401240214705467, -0.09819065034389496], [0.05918649956583977, 0.02428855374455452, 0.08163068443536758]], [[0.057729896157979965, 0.028143517673015594, -0.0709906816482544], [0.026538295671343803, 0.019289158284664154, 0.07358020544052124], [-0.024989664554595947, 0.011140894144773483, -0.02665368840098381]], [[0.027842488139867783, -0.026179227977991104, -0.09431692212820053], [-0.04546024277806282, 0.027674783021211624, 0.010355567559599876], [-0.033784493803977966, 0.07209111750125885, -0.030207563191652298]], [[-0.11086270213127136, 0.023660482838749886, -0.007622050121426582], [0.06019804999232292, -0.03635798767209053, 0.04541050270199776], [-0.013291806913912296, -0.08622188866138458, 0.020464494824409485]], [[0.0020356010645627975, 0.04420500248670578, -0.006116793025285006], [-0.2201107144355774, 0.07613358646631241, -0.057784538716077805], [-0.1311960518360138, 0.006516010966151953, -0.012982675805687904]], [[0.010525454767048359, 0.019787181168794632, -0.044679488986730576], [0.0292945709079504, -0.12318787723779678, -0.019019918516278267], [-0.1288689821958542, 0.09234034270048141, -0.04501229524612427]], [[-0.040820542722940445, 0.05754632130265236, -0.01910126395523548], [-0.1409946084022522, 0.0699385330080986, 0.09673534333705902], [-0.08577901870012283, 0.010751424357295036, -0.04901248589158058]], [[0.175678551197052, -0.151767760515213, 0.07246672362089157], [-0.11346311867237091, -0.042967598885297775, 0.19244515895843506], [0.09129317849874496, 0.007162605412304401, 0.15481418371200562]], [[-0.16287477314472198, -0.00023676468117628247, 0.09224380552768707], [-0.05386998504400253, -0.1481485813856125, 0.0203408170491457], [-0.30688217282295227, 0.03289680555462837, -0.09049171209335327]], [[-0.024954264983534813, 0.015221618115901947, -0.05831101909279823], [0.10091584175825119, -0.14517942070960999, 0.03780302405357361], [0.04170646890997887, 0.06760727614164352, 0.03853696957230568]], [[0.03184136375784874, 0.0371006540954113, -0.035180047154426575], [-0.05124446377158165, -0.013099022209644318, -0.011440244503319263], [-0.011615707539021969, -0.029717616736888885, -0.01864762417972088]], [[-0.03657229617238045, 0.037238605320453644, -0.08414468914270401], [-0.1278223991394043, -0.02113177441060543, 0.026450833305716515], [0.003749398048967123, -0.04039686918258667, -0.013662242330610752]], [[0.07729500532150269, -0.06357313692569733, 0.0702558383345604], [0.07274508476257324, 0.10839775949716568, -0.0371147096157074], [0.03167863190174103, 0.12660695612430573, -0.050340332090854645]], [[0.021165981888771057, -0.10397396236658096, -0.03027845174074173], [0.05012376606464386, -0.03202996402978897, -0.0767909437417984], [0.18477001786231995, 0.04914622753858566, 0.14692306518554688]]], [[[-0.08829134702682495, -0.05257609859108925, 0.046132903546094894], [0.07770323753356934, 0.10015302896499634, 0.05295081064105034], [-0.04489625617861748, 0.019920216873288155, -0.08002814650535583]], [[-0.004444299265742302, 0.05497387424111366, 0.0025599701330065727], [-0.17438839375972748, -0.012804700061678886, 0.005923011805862188], [0.08850862085819244, 0.03537115827202797, 0.010785781778395176]], [[0.006220603361725807, 0.21894478797912598, -0.03146199882030487], [-0.18626560270786285, 0.011680236086249352, 0.16385890543460846], [-0.20379367470741272, 0.07216282933950424, 0.10028497129678726]], [[0.19826000928878784, 0.005035256501287222, -0.1227969080209732], [-0.030769899487495422, -0.029898211359977722, 0.06512601673603058], [0.20636694133281708, -0.06323069334030151, 0.03033347800374031]], [[-0.08190630376338959, -0.0893544852733612, 0.00026969591272063553], [0.03216912969946861, -0.08584310114383698, -0.1221129521727562], [0.03486943989992142, -0.1433483064174652, -0.023136772215366364]], [[0.02069118246436119, -0.02491406723856926, -0.015748783946037292], [-0.006385673303157091, 0.028985818848013878, 0.05217185989022255], [-0.08001735061407089, -0.030493255704641342, -0.012443243525922298]], [[-0.19505970180034637, -0.1169312372803688, 0.04815937206149101], [-0.15585686266422272, -0.12153879553079605, 0.036624375730752945], [-0.011715848930180073, -0.05625404044985771, -0.029015613719820976]], [[0.013267919421195984, 0.06209342181682587, -0.013761691749095917], [-0.028838006779551506, 0.029332490637898445, -0.0632316842675209], [-0.004238232038915157, 0.07402562350034714, 0.06909133493900299]], [[-0.169850155711174, -0.1150667741894722, 0.009045539423823357], [0.17800019681453705, -0.08965161442756653, 0.03733302652835846], [0.0010825631907209754, -0.053321246057748795, -0.012564615346491337]], [[0.07306964695453644, -0.05015614628791809, 0.04781420901417732], [0.0818927064538002, 0.04539557173848152, -0.002744856756180525], [-0.007802182342857122, 0.007126650772988796, -0.09408345818519592]], [[-0.07435294985771179, 0.1057276725769043, 0.017291249707341194], [-0.05484851449728012, 0.04852980747818947, 0.12187132239341736], [-0.008756485767662525, 0.06929916143417358, 0.09650476276874542]], [[0.004565130919218063, -0.07124180346727371, -0.021775253117084503], [-0.1761273592710495, 0.009699652902781963, 0.05872825160622597], [0.06321670114994049, -0.07559501379728317, 0.03264982998371124]], [[-0.3090672194957733, 0.09091027826070786, -0.2045225352048874], [-0.03645187243819237, 0.1044391319155693, 0.12558043003082275], [-0.05232914909720421, 0.20909945666790009, 0.22863644361495972]], [[0.129110649228096, 0.005979841109365225, 0.010518359951674938], [-0.00413843197748065, 0.06702116131782532, 0.06040803715586662], [-0.08594555407762527, -0.044021304696798325, -0.03313322365283966]], [[0.2112780213356018, 0.01062776055186987, 0.01741044595837593], [0.06693266332149506, 0.13569696247577667, -0.04782962426543236], [0.08139767497777939, -0.04065198823809624, -0.016381284222006798]], [[-0.061833396553993225, 0.06383724510669708, 0.03568177670240402], [-0.06313247978687286, 0.14373670518398285, 0.06304942071437836], [-0.03253952041268349, 0.08276931196451187, 0.017155131325125694]], [[-0.07595227658748627, 0.08321486413478851, 0.10803153365850449], [-0.010978183709084988, -0.09782210737466812, -0.05792725831270218], [-0.09958382695913315, 0.039426539093256, 0.039121247828006744]], [[0.12482494860887527, -0.0776127278804779, -0.08130789548158646], [-0.005345648620277643, -0.14644716680049896, -0.03738393634557724], [0.15499436855316162, -0.039941538125276566, -0.024554798379540443]], [[-0.1555369347333908, -0.001757594058290124, -0.09865817427635193], [0.014602706767618656, 0.12179345637559891, 0.11442823708057404], [-0.009972776286303997, 0.06764675676822662, -0.12998934090137482]], [[-0.006876479834318161, 0.044421616941690445, 0.04877906292676926], [-0.05942452326416969, -0.07424570620059967, -0.036098774522542953], [-0.1431441605091095, -0.08842362463474274, -0.022860251367092133]], [[-0.06369119137525558, 0.05890589579939842, -0.03728007152676582], [0.0714731216430664, 0.1382702887058258, 0.04593431204557419], [0.028425274416804314, -0.001042738207615912, -0.016824474558234215]], [[-0.02555854618549347, 0.015724394470453262, -0.003196615492925048], [-0.007674525026232004, 0.08029281347990036, 0.016982119530439377], [-0.010095987468957901, -0.003106379881501198, -0.046097081154584885]], [[0.1177983209490776, -0.05287497863173485, 0.1364595741033554], [-0.21212437748908997, -0.20875954627990723, -0.041169703006744385], [0.019930299371480942, -0.07192303985357285, 0.03400816023349762]], [[0.09382546693086624, 0.00498605240136385, -0.14686807990074158], [-0.10967937111854553, -0.050628114491701126, -0.021031493321061134], [0.12210225313901901, -0.09024659544229507, 0.01605498045682907]]], [[[0.050718486309051514, 0.002694813534617424, -0.03145166113972664], [-0.0006548751844093204, 0.08776333928108215, -0.01363520696759224], [0.04021509364247322, -0.1354120969772339, 0.035011839121580124]], [[-0.04217008873820305, -0.06671424955129623, -0.01539980061352253], [0.04196201264858246, 0.17148011922836304, -0.05784398689866066], [-0.037081826478242874, 0.10419873893260956, -0.0054388344287872314]], [[0.019198277965188026, -0.04733146354556084, 0.1141013354063034], [-0.054204776883125305, 0.031758956611156464, -0.14382654428482056], [0.07967416197061539, 0.12389057129621506, -0.00197163550183177]], [[0.03352540731430054, -0.056702855974435806, 0.1378079652786255], [-0.015123599208891392, -0.11824161559343338, -0.016596714034676552], [0.1677340716123581, 0.055128924548625946, 0.07043308764696121]], [[0.010676014237105846, 0.030891546979546547, -0.02066291868686676], [-0.0717257633805275, 0.16250796616077423, -0.20295125246047974], [-0.04159829393029213, 0.01238023117184639, -0.1325984001159668]], [[-0.04947458952665329, 0.010845381766557693, 0.0156679879873991], [0.047342002391815186, 0.04017854854464531, -0.026059234514832497], [0.0392095185816288, -0.05472318083047867, -0.06419800966978073]], [[-0.05156463012099266, 0.11358175426721573, 0.003133106976747513], [0.07286890596151352, 0.0005742028588429093, -0.2231241762638092], [0.06356371194124222, 0.034672196954488754, -0.13499705493450165]], [[-0.020181963220238686, -0.06414023041725159, 0.029840780422091484], [-0.07151931524276733, -0.08586625009775162, -0.03416265547275543], [-0.042846936732530594, 0.039448704570531845, -0.024171093478798866]], [[0.025492830201983452, -0.019218092784285545, -0.16804565489292145], [-0.036053985357284546, 0.15673212707042694, 0.03746920824050903], [0.0004949711146764457, -0.14574317634105682, -0.025038521736860275]], [[0.013325360603630543, -0.02252337522804737, -0.056020744144916534], [0.030490290373563766, 0.003262435784563422, 0.022223904728889465], [0.029878154397010803, -0.017675505951046944, -0.08599366992712021]], [[-0.07547523081302643, 0.04623845964670181, -0.12270967662334442], [0.0008597311680205166, 0.11139501631259918, -0.00786365196108818], [0.0367160439491272, -0.06649012118577957, 0.04231862723827362]], [[0.03158797696232796, 0.1259535849094391, 0.06752681732177734], [-0.030630504712462425, -0.02818356826901436, -0.048746075481176376], [0.08244724571704865, 0.07386931777000427, -0.008072816766798496]], [[-0.05875127390027046, 0.06892972439527512, -0.20683985948562622], [-0.04440631717443466, -0.045063115656375885, -0.034748051315546036], [-0.013911468908190727, -0.02769431285560131, 0.21853262186050415]], [[-0.015384307131171227, -0.12231761962175369, 0.18137052655220032], [-0.016966616734862328, -0.047458257526159286, 0.04945781081914902], [0.04371238127350807, -0.014829164370894432, -0.1214873418211937]], [[-0.02105139009654522, -0.03206746280193329, 0.05547189712524414], [0.12786678969860077, -0.04201412573456764, 0.13163207471370697], [0.07146855443716049, -0.04547505080699921, 0.15596292912960052]], [[0.0006606614333577454, 0.08436433225870132, -0.054926589131355286], [0.033716391772031784, 0.044290363788604736, -0.10426643490791321], [-0.03637636825442314, 0.043612487614154816, -0.11479981988668442]], [[-0.08867637813091278, 0.04537654668092728, 0.07430500537157059], [-0.100465327501297, -0.0867573693394661, -0.17872591316699982], [-0.06731519103050232, 0.036962322890758514, -0.030204838141798973]], [[0.01867988333106041, -0.02813444845378399, 0.05850369110703468], [-0.10242778807878494, 0.12349612265825272, -0.19469140470027924], [0.020565569400787354, 0.022634057328104973, -0.04554305598139763]], [[-0.08680644631385803, 0.03649090975522995, -0.005757675506174564], [0.11263424158096313, -0.006100280210375786, -0.043840441852808], [-0.03433045372366905, -0.09482645243406296, 0.01409305538982153]], [[-0.02589474804699421, -0.006987784989178181, 0.04927974194288254], [-0.06877752393484116, 0.09773704409599304, -0.18954184651374817], [0.03021121956408024, 0.1815459430217743, -0.08488927781581879]], [[0.012303262017667294, 0.05518257990479469, -0.07484638690948486], [0.03546668589115143, -0.024780504405498505, 0.03360718488693237], [0.04067360237240791, -0.05110275000333786, -0.04685315489768982]], [[0.06499754637479782, 0.03741355240345001, 0.00783172994852066], [-0.05970388650894165, -0.04182218760251999, 0.006642308086156845], [0.026120739057660103, 0.033836644142866135, 0.045547451823949814]], [[-0.01413525640964508, 0.08733941614627838, 0.11005688458681107], [0.0316387340426445, 0.03377119079232216, -0.1126784160733223], [0.033503804355859756, 0.1845080554485321, -0.020108265802264214]], [[-0.017257029190659523, 0.04510163515806198, -0.09471981972455978], [0.0777054950594902, 0.18754231929779053, -0.06764616072177887], [0.12428054958581924, -0.05819809436798096, -0.07775157690048218]]], [[[-0.01450499240309, -0.022850221022963524, -0.08426129072904587], [0.02570028230547905, 0.06365349143743515, -0.015321443788707256], [0.0773589164018631, 0.02913513034582138, 0.005117780528962612]], [[-0.09470638632774353, -0.02842121012508869, -0.10841384530067444], [0.040261946618556976, 0.0694679543375969, 0.06740926206111908], [-0.09218239784240723, 0.05466417595744133, -0.10068954527378082]], [[-0.07767622172832489, 0.015022286213934422, -0.05209328234195709], [0.07134600728750229, -0.10862032324075699, 0.00418740464374423], [-0.029827922582626343, -0.03167233243584633, 0.040173932909965515]], [[-0.06374888122081757, 0.017196375876665115, 0.03698009252548218], [-0.0455743707716465, 0.014803953468799591, 0.0450841560959816], [-0.08956664800643921, -0.03133055567741394, -0.0015125215286388993]], [[0.13161179423332214, 0.01858774572610855, 0.02398630790412426], [0.08739747852087021, -0.07413304597139359, 0.04598153382539749], [0.03326736018061638, 0.062300052493810654, -0.032733965665102005]], [[0.03382541984319687, -0.04556480795145035, -0.03809745982289314], [0.07639897614717484, -0.06465839594602585, -0.012382945977151394], [0.09760714322328568, 0.009165357798337936, -0.05336979404091835]], [[0.11273500323295593, 0.02744407206773758, 0.04767340049147606], [-0.022120466455817223, -0.12059661000967026, 0.04241667687892914], [-0.019013358280062675, 0.0021425578743219376, 0.05237600579857826]], [[-0.08901361376047134, 0.03871450573205948, -0.01464025117456913], [-0.07111461460590363, -0.06790921092033386, 0.0828356146812439], [0.02453223615884781, 0.05007263273000717, 0.004553656093776226]], [[-0.026888176798820496, -0.04150926321744919, -0.10596577823162079], [0.09098722040653229, 0.040523041039705276, -0.0845315232872963], [-0.09858153760433197, 0.05785372108221054, -0.029775291681289673]], [[0.015974076464772224, -0.09711740911006927, -0.02834462933242321], [0.10411173850297928, -0.02935025282204151, 0.06568753719329834], [0.013431757688522339, -0.015570037066936493, 0.10249071568250656]], [[0.044316865503787994, -0.08339657634496689, 0.014163934625685215], [0.07547216862440109, -0.05371147394180298, -0.07071472704410553], [0.006758489180356264, 0.009389328770339489, -0.06914429366588593]], [[-0.028745604678988457, -0.059382908046245575, 0.0066316258162260056], [-0.01657840609550476, -0.06003393605351448, 0.009681375697255135], [-0.008117100223898888, -0.04422776401042938, 0.015079041942954063]], [[0.03809833154082298, -0.032342877238988876, -0.07421591132879257], [0.1036323606967926, 0.034182921051979065, 0.07372723519802094], [-0.05078307166695595, 0.023161811754107475, -0.001304268604144454]], [[-0.014380085282027721, 0.005109182093292475, 0.06739985197782516], [0.04880985990166664, 0.012115495279431343, -0.10964874923229218], [0.09195780754089355, -0.06367473304271698, 0.012099013663828373]], [[0.026152238249778748, -0.04112714156508446, 0.0456523522734642], [-0.2156364619731903, 0.09247851371765137, -0.08350034803152084], [-0.10716190189123154, 0.0022776341065764427, 0.01031792163848877]], [[0.09202095866203308, -0.06438438594341278, 0.000895277364179492], [0.0893673449754715, 0.01399803627282381, 0.03621194511651993], [-0.04863051325082779, -0.06517623364925385, -0.021609297022223473]], [[0.07222411781549454, 0.00015352063928730786, -0.029399313032627106], [-0.0661395937204361, -0.0011623844038695097, 0.1539272665977478], [0.02753557078540325, 0.03355829417705536, 0.040555499494075775]], [[0.07290205359458923, -0.04435068368911743, -0.021293262019753456], [-0.034207601100206375, -0.0833178460597992, 0.09156190603971481], [0.0441986620426178, 0.012842639349400997, -0.05861356109380722]], [[0.12064617872238159, 0.028324931859970093, -0.05436955392360687], [-0.05355949327349663, -0.18943697214126587, 0.03596377372741699], [-0.024797284975647926, 0.07741137593984604, 0.11432011425495148]], [[-0.07862872630357742, 0.009704900905489922, -0.08235479146242142], [0.08740092068910599, -0.016300981864333153, 0.02690967544913292], [0.1008882150053978, -0.07814968377351761, -0.03397497162222862]], [[0.10969145596027374, -0.004390832968056202, 0.04118863120675087], [0.017619328573346138, -0.10983938723802567, -0.0573636032640934], [0.01942061074078083, -0.07037045806646347, 0.02169790491461754]], [[0.03730146586894989, -0.06070354953408241, 0.03835432603955269], [0.014272747561335564, -0.08074264973402023, 0.008726900443434715], [-0.08285592496395111, -0.01728963293135166, 0.09074156731367111]], [[0.03928965702652931, -0.06505732983350754, -0.07673144340515137], [-0.06352885067462921, 0.13621054589748383, 0.04467769339680672], [0.04898568242788315, -0.00011203342728549615, -0.06869446486234665]], [[-0.00887743104249239, 0.015356657095253468, -0.0584736168384552], [-0.014754769392311573, 0.0883421003818512, -0.12771308422088623], [-0.021043403074145317, -0.11748939752578735, -0.08994867652654648]]], [[[0.0375346876680851, -0.04102780669927597, 0.002060467377305031], [-0.05977170169353485, -0.12423969060182571, -0.0586065910756588], [0.002186970552429557, 0.06898301839828491, 0.09379220008850098]], [[0.046715520322322845, 0.10734733939170837, -0.03868250548839569], [-0.0015551686519756913, -0.09087341278791428, -0.0015264314133673906], [-0.07555233687162399, -0.09714796394109726, -0.04285598173737526]], [[0.01219959557056427, 0.043361082673072815, 0.07317357510328293], [-0.03812180086970329, 0.06148441135883331, 0.10817849636077881], [-0.18027378618717194, -0.05725930631160736, -0.003467780537903309]], [[0.05953124165534973, -0.00011725187505362555, -0.062425363808870316], [0.10654153674840927, 0.07348861545324326, 0.010029997676610947], [-0.13376228511333466, 0.03201133757829666, -0.07221915572881699]], [[-0.002527535893023014, 0.05514910817146301, 0.022378049790859222], [-0.028682749718427658, 0.04072146490216255, 0.0266402680426836], [-0.00898571778088808, -0.04691452905535698, -0.019958078861236572]], [[-0.06474921107292175, -0.023615550249814987, -0.05838792026042938], [0.056893497705459595, -0.09230700880289078, -0.06416507810354233], [0.04955156147480011, 0.048545800149440765, 0.046853430569171906]], [[0.03200537711381912, -0.0019203164847567677, -0.00301010487601161], [-0.051829345524311066, 0.09802797436714172, 0.10167934000492096], [-0.049562934786081314, -0.16992628574371338, -0.077794648706913]], [[-0.03408785164356232, -0.047962736338377, -0.010710254311561584], [0.08727942407131195, 0.04846661910414696, -0.015525034628808498], [0.04087226837873459, -0.10311321169137955, -0.0020190102513879538]], [[0.0363566018640995, 0.01377140823751688, -0.0003264274273533374], [-0.0992705225944519, -0.1929929554462433, -0.009346043691039085], [-0.10965041071176529, 0.0472864992916584, 0.2189643532037735]], [[0.03913060948252678, 0.09739139676094055, -0.09552915394306183], [0.0014346023090183735, -0.027296559885144234, 0.013626405037939548], [0.00894672330468893, -0.008930089883506298, -0.07131429016590118]], [[-0.06463811546564102, -0.021988103166222572, 0.021621843799948692], [-0.09622380882501602, -0.1539475917816162, -0.006557388696819544], [-0.07001113891601562, 0.03642300143837929, 0.05906352028250694]], [[0.0031469627283513546, -0.018695449456572533, 0.06707353889942169], [0.005430336110293865, 0.03576969727873802, 0.0013168806908652186], [-0.07158467918634415, -0.0895518809556961, -0.003917029593139887]], [[0.0100050438195467, 0.06852886080741882, 0.026351511478424072], [0.005548099055886269, 0.03967916965484619, 0.0779636949300766], [-0.11591240018606186, 0.0649319440126419, -0.029945801943540573]], [[-0.009064231999218464, -0.03984899818897247, 0.015088383108377457], [0.10042516142129898, 0.10392215847969055, 0.09754881262779236], [-0.004413807764649391, 0.08067931979894638, 0.019418584182858467]], [[0.05255075916647911, -0.002480169991031289, 0.018553784117102623], [0.024034786969423294, -0.17084629833698273, -0.1712867170572281], [0.13149987161159515, 0.061303552240133286, 0.02432742714881897]], [[0.047257836908102036, -0.03743681684136391, 0.07132942229509354], [-0.19042371213436127, -0.09372648596763611, 0.07987187802791595], [-0.07388226687908173, 0.029569324105978012, 0.004237841349095106]], [[-0.09371571242809296, -0.02040584571659565, -0.08155433088541031], [0.06013261154294014, 0.18185405433177948, 0.10025934129953384], [0.004172923043370247, -0.0652870237827301, -0.09244248270988464]], [[0.005845075007528067, -0.04406658932566643, -0.0026958687230944633], [0.09839970618486404, 0.09123531728982925, 0.09522122889757156], [-0.01411899458616972, -0.12899552285671234, -0.12461481243371964]], [[0.0704847201704979, -0.05811010301113129, -0.08743652701377869], [-0.09583330154418945, 0.028708288446068764, 0.002254140330478549], [0.023135485127568245, 0.10473513603210449, 0.06040199473500252]], [[0.03259213641285896, 0.014417740516364574, -0.03755268082022667], [-0.047346312552690506, -0.0018378006061539054, 0.06725295633077621], [-0.03879470378160477, -0.10518758744001389, -0.02115866355597973]], [[-0.0544106662273407, -0.012955314479768276, 0.004796879831701517], [-0.10081294924020767, -0.07375264167785645, 0.07677394896745682], [-0.011877256445586681, 0.020357029512524605, 0.0748666450381279]], [[-0.012997329235076904, 0.02515728957951069, 0.03137462958693504], [-0.057110048830509186, 0.08636635541915894, -0.02261180430650711], [-0.04676365107297897, -0.09850678592920303, -0.04812333360314369]], [[-0.008752294816076756, -0.004114861600100994, 0.0029669615905731916], [0.0010833257110789418, 0.07719527930021286, -0.11826642602682114], [0.07018936425447464, -0.18915820121765137, -0.11176589876413345]], [[0.054714709520339966, 0.0767006203532219, 0.1025867760181427], [-0.0966627448797226, -0.2613765597343445, -0.05645216628909111], [-0.06534384936094284, -0.07434092462062836, -0.01977972313761711]]], [[[-0.0011838336940854788, 0.07589352130889893, -0.021728359162807465], [0.056162070482969284, -0.08752529323101044, -0.05788515508174896], [-0.0022810418158769608, 0.05160331726074219, -0.05517975613474846]], [[-0.03596366569399834, -0.06722832471132278, -0.03887852653861046], [0.07232385128736496, 0.07286493480205536, -0.030212415382266045], [0.08286105841398239, 0.09355471283197403, -0.0758509561419487]], [[0.10500860214233398, 0.08579777926206589, -0.20029982924461365], [0.08961649239063263, -0.17339974641799927, 0.04878643527626991], [0.004435845650732517, -0.1383044421672821, -0.028300147503614426]], [[0.24008512496948242, 0.07159662246704102, 0.00789743009954691], [0.136115163564682, 0.1317245364189148, -0.03599411994218826], [0.029805291444063187, -0.032194919884204865, 0.0717104896903038]], [[-0.18883539736270905, 0.13236717879772186, -0.019310690462589264], [-0.2275109440088272, 0.013274621218442917, 0.0192687027156353], [-0.15562492609024048, -0.092038594186306, 0.08351997286081314]], [[0.007658026181161404, 0.060035575181245804, 0.021992694586515427], [0.005513595882803202, 0.011708504520356655, -0.055550459772348404], [0.03719629719853401, 0.01322103850543499, 0.06017346680164337]], [[-0.0006400985294021666, -0.16664087772369385, -0.013745150528848171], [-0.23518380522727966, -0.02524195984005928, 0.05231333523988724], [-0.10866942256689072, 0.11513197422027588, 0.036919280886650085]], [[0.09400579333305359, -0.01846691407263279, 0.009823601692914963], [-0.020977593958377838, -0.05429087206721306, -0.03904141113162041], [0.10831958055496216, -0.07768722623586655, 0.019231757149100304]], [[-0.14129914343357086, 0.15537922084331512, 0.21097509562969208], [-0.011966487392783165, -0.009502108208835125, 0.07960133999586105], [0.0355202853679657, 0.031868115067481995, -0.05899788811802864]], [[-0.08575303852558136, -0.02368767373263836, -0.0008202194585464895], [-0.16295865178108215, -0.2195846289396286, 0.013635050505399704], [-0.07313430309295654, -0.014998847618699074, 0.1402980089187622]], [[-0.10677013546228409, -0.08009590953588486, -0.03601080924272537], [0.12722662091255188, -0.12456337362527847, -0.13280652463436127], [0.05626436322927475, -0.07150349020957947, -0.07483488321304321]], [[-0.03093043342232704, -0.08885713666677475, 0.00760589400306344], [-0.057776086032390594, -0.01891832984983921, 0.026487166061997414], [-0.003450663760304451, -0.05301099270582199, -0.01923302561044693]], [[-0.006833184044808149, 0.159611776471138, -0.12473340332508087], [0.14281003177165985, -0.16637147963047028, 0.055098049342632294], [0.22181788086891174, -0.04278381168842316, -0.02876603603363037]], [[0.07772278785705566, -0.04346568509936333, -0.030416708439588547], [0.019135162234306335, -0.01997010037302971, -0.03958387300372124], [-0.0951036736369133, -0.09772181510925293, 0.039366498589515686]], [[0.0956418439745903, -0.12846334278583527, 0.15107282996177673], [0.21759384870529175, 0.05975310504436493, -0.044313982129096985], [0.0895160511136055, -0.06043942645192146, -0.009345737285912037]], [[-0.022864380851387978, -0.12026280909776688, -0.031521737575531006], [0.0830499529838562, -0.26148730516433716, -0.024107104167342186], [0.045297857373952866, -0.04504624381661415, -0.08568461984395981]], [[0.08441224694252014, -0.03283466771245003, -0.016150223091244698], [-0.23222753405570984, -0.10013671964406967, 0.12205909937620163], [0.07082615792751312, -0.10205275565385818, 0.050042007118463516]], [[-0.023007698357105255, 0.11856573820114136, 0.03238033875823021], [-0.3293984532356262, 0.004727553576231003, 0.09084930270910263], [-0.02483109012246132, -0.06514881551265717, 0.10528253018856049]], [[0.05087560415267944, -0.08400796353816986, 0.04483497515320778], [0.12209538370370865, -0.21269336342811584, -0.017524201422929764], [0.09743346273899078, 0.0735277384519577, -0.06433869153261185]], [[-0.09692417830228806, -0.04198508337140083, -0.029825568199157715], [-0.23040243983268738, -0.0004241851274855435, -0.020623696967959404], [-0.12297065556049347, -0.028228338807821274, -0.06039247289299965]], [[0.060375701636075974, 0.0265886839479208, -0.013823387213051319], [0.09228811413049698, -0.04390694573521614, 0.0008292265702039003], [0.04253831505775452, -0.0732136145234108, 0.046033892780542374]], [[-0.02752048894762993, -0.10058265924453735, -0.04921247437596321], [-0.03889482095837593, -0.1088484451174736, 0.013382093980908394], [-0.029821032658219337, -0.020947648212313652, 0.03696523606777191]], [[0.053386908024549484, -0.023947823792696, -0.046093832701444626], [-0.08934345841407776, 0.21827806532382965, 0.06691724807024002], [-0.11221323907375336, 0.039015188813209534, -0.06203967705368996]], [[-0.07284727692604065, -0.0014681968605145812, 0.05169098824262619], [0.12262876331806183, 0.07262064516544342, -0.13417468965053558], [-0.13285386562347412, 0.09556451439857483, 0.04667181149125099]]], [[[-0.011476732790470123, -0.06070752069354057, -0.015995735302567482], [0.025408076122403145, -0.15054632723331451, -0.011548575945198536], [0.025987694039940834, 0.09129700809717178, -0.049400489777326584]], [[-0.08179113268852234, 0.006881057750433683, -0.1617901623249054], [0.09519113600254059, -0.12540921568870544, 0.14176014065742493], [-0.032130565494298935, -0.008758733049035072, 0.09009366482496262]], [[-0.04532420635223389, 0.17322786152362823, -0.17974859476089478], [-0.000690253044012934, 0.07694810628890991, -0.0898161232471466], [-0.04504567012190819, -0.21853508055210114, -0.11158189177513123]], [[0.20052604377269745, 0.23603563010692596, -0.03047281503677368], [-0.07402367889881134, 0.24984364211559296, -0.10278820246458054], [-0.03619726747274399, -0.09733009338378906, 0.13809379935264587]], [[-0.0578104704618454, -0.11868992447853088, 0.1346491575241089], [-0.12064052373170853, -0.4188257157802582, 0.25980904698371887], [0.07046042382717133, -0.17615057528018951, 0.05936204642057419]], [[0.04770436882972717, 0.027463043108582497, -0.005696253385394812], [-0.05355728045105934, 0.025690579786896706, 0.002699468517675996], [-0.03015066497027874, 0.02078579179942608, -0.002759662689641118]], [[-0.007391310762614012, 0.016781387850642204, -0.0669490173459053], [-0.07553539425134659, -0.2267005741596222, 0.1915203183889389], [-0.07088866084814072, -0.1434459686279297, 0.27674540877342224]], [[0.04181025177240372, 0.03750858083367348, -0.0992097407579422], [0.0619732066988945, 0.030024880543351173, -0.0779351070523262], [-0.03962237387895584, -0.05542563647031784, -0.04509301856160164]], [[-0.16174055635929108, 0.11105377227067947, 0.4738910496234894], [0.07765054702758789, -0.30478498339653015, 0.21972277760505676], [0.0418468713760376, 0.0897250846028328, -0.009275098331272602]], [[-0.0038461971562355757, -0.06287577748298645, 0.13776077330112457], [-0.09265207499265671, -0.1915818303823471, -0.22776196897029877], [0.062066566199064255, -0.25310468673706055, 0.002063967753201723]], [[-0.007201708387583494, -0.13974431157112122, -0.05268168821930885], [0.026683345437049866, -0.08851131796836853, -0.1318812370300293], [0.03125777468085289, 0.1457861214876175, -0.08286615461111069]], [[-0.0638909786939621, 0.03352181985974312, -0.1525130420923233], [0.06877423822879791, -0.0251782089471817, 0.05811876431107521], [-0.021697670221328735, -0.03298712149262428, -0.009531738236546516]], [[-0.005870015826076269, 0.021062493324279785, 0.05707329884171486], [0.037584781646728516, -0.16063806414604187, -0.0654444769024849], [0.006816590204834938, 0.32841524481773376, -0.5524590611457825]], [[-0.054941896349191666, 0.12980163097381592, -0.010160394012928009], [-0.10888226330280304, 0.22260689735412598, -0.16174693405628204], [-0.04376930743455887, -0.2234402447938919, 0.013943134807050228]], [[0.08772537112236023, -0.0960967093706131, -0.10308051109313965], [0.03818980231881142, 0.17758236825466156, -0.12468564510345459], [0.09668238461017609, 0.2525401711463928, -0.09337807446718216]], [[-0.07044558972120285, -0.08288584649562836, -0.2973889708518982], [-0.030723068863153458, -0.047650136053562164, -0.48236945271492004], [-0.0591123066842556, 0.03161628544330597, -0.20714648067951202]], [[0.01059645228087902, 0.05200532451272011, -0.2550085484981537], [-0.09987986832857132, -0.14425085484981537, 0.011406736448407173], [0.01564914733171463, -0.24322742223739624, -0.1510661244392395]], [[0.07770384848117828, 0.1656813621520996, 0.05546601489186287], [-0.028178779408335686, -0.4721004366874695, 0.19912420213222504], [0.10061196982860565, -0.39920327067375183, 0.21231913566589355]], [[0.03766826167702675, 0.05039294809103012, -0.3176773190498352], [0.014724734239280224, -0.20450541377067566, -0.27868708968162537], [0.052802924066782, 0.21257025003433228, -0.016016734763979912]], [[-0.063309445977211, 0.07991805672645569, -0.08302653580904007], [0.023832442238926888, -0.1188252866268158, 0.10336411744356155], [-0.004788197576999664, -0.47564372420310974, 0.29209965467453003]], [[-0.02315882034599781, -0.09759867936372757, -0.07349271327257156], [0.010648398660123348, 0.03303752467036247, -0.10447125136852264], [0.029809150844812393, 0.08383399993181229, -0.09554450958967209]], [[0.041949979960918427, -0.08261974155902863, -0.05080664902925491], [-0.04257936775684357, -0.046205028891563416, -0.09857910126447678], [-0.013255743309855461, -0.055948227643966675, -0.0708756372332573]], [[-0.03409947082400322, -0.009664313867688179, 0.004187935963273048], [0.06592395156621933, -0.025458980351686478, 0.18966777622699738], [-0.0466366745531559, -0.22380486130714417, 0.19402241706848145]], [[-0.04379437863826752, -0.05095839127898216, 0.30302929878234863], [0.016715120524168015, -0.13623511791229248, 0.04519209638237953], [-0.10053129494190216, 0.007735075429081917, 0.162565678358078]]], [[[-0.047495145350694656, 0.006803447846323252, -0.05681785196065903], [-0.004217319190502167, 0.0450681708753109, -0.062076590955257416], [-0.01659955456852913, 0.022285737097263336, 0.07178214192390442]], [[-0.020387200638651848, -0.12126865983009338, -0.09715032577514648], [-0.038073860108852386, 0.10827977955341339, -0.05073266848921776], [0.06254290789365768, 0.08850926160812378, 0.018011828884482384]], [[-0.038708895444869995, 0.004957269877195358, 0.05239732936024666], [-0.003952876664698124, 0.05583743005990982, -0.07594654709100723], [-0.035261668264865875, -0.0168524868786335, -0.11210247129201889]], [[0.03635210543870926, 0.010057671926915646, -0.03936802223324776], [-0.07757578045129776, -0.09534502029418945, 0.10360312461853027], [0.11344078183174133, -0.027088088914752007, 0.0509270504117012]], [[-0.055825307965278625, 0.08112533390522003, 0.1158757358789444], [-0.11327532678842545, 0.09294773638248444, -0.006861298345029354], [-0.06501048058271408, -0.007066149264574051, -0.07051423192024231]], [[0.0708988606929779, -0.0020293823909014463, 0.06775391846895218], [-0.10848395526409149, 0.01798180304467678, 0.06129743531346321], [-0.09773290902376175, -0.0398232638835907, -0.0028503714129328728]], [[0.04314874857664108, -0.0944947823882103, -0.04002183675765991], [-0.07779814302921295, 0.05329339951276779, -0.08109038323163986], [-0.04040193930268288, 0.024107709527015686, -0.0074811880476772785]], [[-0.010655517689883709, 0.00844915583729744, -0.06567385047674179], [0.09190651029348373, 0.041823793202638626, -0.056948594748973846], [0.04541582241654396, -0.01930016092956066, -0.002079083351418376]], [[-0.06710109859704971, -0.009360961616039276, 0.03203191980719566], [0.07669314742088318, 0.02393277920782566, -0.06935054808855057], [0.20038653910160065, -0.07018378376960754, -0.05274296924471855]], [[-0.1802377700805664, 0.05175398662686348, -0.011270738206803799], [-0.04777456074953079, 0.06010285019874573, -0.07955145090818405], [-0.11329355090856552, 0.029662977904081345, 0.014803405851125717]], [[0.061928827315568924, -0.00949639268219471, 0.013762379065155983], [-0.019693495705723763, 0.12488407641649246, -0.046550266444683075], [0.02255023643374443, -0.05034083500504494, 0.004827558062970638]], [[0.11247649043798447, -0.017206458374857903, 0.06977441161870956], [-0.11239153146743774, 0.06157122924923897, -0.09252645075321198], [0.024208156391978264, 0.10346755385398865, -0.012397725135087967]], [[0.09129321575164795, -0.0983981266617775, 0.1198158785700798], [-0.022720791399478912, 0.1260259598493576, -0.07791649550199509], [0.16771180927753448, -0.02658613957464695, -0.18005134165287018]], [[-0.040610406547784805, 0.153428316116333, 0.04396112263202667], [0.03327377140522003, -0.07453896850347519, 0.0939239114522934], [-0.07428248971700668, -0.059744298458099365, -0.0020930974278599024]], [[0.016321875154972076, 0.08054900169372559, -0.08279485255479813], [-0.021408572793006897, -0.09369737654924393, 0.09432724863290787], [0.11558539420366287, -0.005562009755522013, 0.1627192199230194]], [[0.10577058047056198, 0.027635015547275543, 0.044380515813827515], [-0.17031842470169067, 0.07732672989368439, -0.09606999158859253], [-0.05435533821582794, 0.1351373940706253, 0.0304364413022995]], [[-0.006626363843679428, -0.0423576645553112, 0.034549832344055176], [0.01506410539150238, 0.10141748934984207, -0.028596650809049606], [-0.060284607112407684, -0.033912211656570435, -0.07910627126693726]], [[-0.1583007127046585, -0.09942770004272461, 0.019403262063860893], [-0.20449890196323395, 0.18839602172374725, -0.12161915749311447], [-0.036573462188243866, 0.016452981159090996, 0.07294116914272308]], [[0.1855790615081787, 0.0004994728951714933, -0.06809449940919876], [-0.07313906401395798, 0.19709442555904388, -0.11591283977031708], [0.007290531415492296, -0.004224034026265144, 0.00982079841196537]], [[-0.08385051041841507, -0.022424327209591866, -0.09750941395759583], [0.0008741666679270566, 0.13166232407093048, -0.1304791420698166], [0.03223307058215141, 0.014881983399391174, 0.028560124337673187]], [[0.05778110399842262, -0.031009042635560036, 0.05320955440402031], [-0.044910263270139694, 0.07311052829027176, 0.017773879691958427], [0.026646535843610764, -0.04466079920530319, 0.05434516444802284]], [[0.02328779734671116, 0.008606594987213612, -0.024807067587971687], [0.046122077852487564, -0.06120094656944275, 0.03155070170760155], [0.04729732125997543, 0.11260513961315155, 0.0048031313344836235]], [[-0.05258551239967346, -0.10525824129581451, -0.1163516715168953], [0.019262567162513733, 0.05794449895620346, 0.060863982886075974], [-0.06937888264656067, 0.07670266926288605, 0.04222128167748451]], [[0.007328549865633249, 0.045933373272418976, -0.02448904514312744], [-0.1834801435470581, -0.10765625536441803, 0.06298194080591202], [0.07318653166294098, 0.03977090120315552, 0.11345253139734268]]], [[[0.04673130437731743, 0.08764566481113434, -0.009041962213814259], [-0.01709400676190853, -0.028542984277009964, -0.021378956735134125], [-0.04447659105062485, -0.02498381771147251, 0.06614746898412704]], [[-0.020697854459285736, 0.0956384539604187, 0.06115490943193436], [0.009969882667064667, 0.023523101583123207, -0.11053541302680969], [0.063303641974926, 0.08773338794708252, 0.10427562147378922]], [[-0.13243186473846436, 0.2079998254776001, 0.08637431263923645], [-0.10667769610881805, 0.0782606303691864, -0.12796589732170105], [0.13708725571632385, 0.04632598161697388, -0.19962279498577118]], [[-0.0625484436750412, 0.07137340307235718, 0.014586147852241993], [-0.009610185399651527, -0.04976853355765343, -0.01845124363899231], [-0.013821231201291084, 0.04731230437755585, 0.014029234647750854]], [[0.007644799072295427, -0.1425175964832306, -0.018025700002908707], [-0.048545170575380325, 0.08778591454029083, 0.02643035165965557], [0.0987580269575119, -0.16487494111061096, 0.08773748576641083]], [[-0.054456014186143875, 0.11508410423994064, -0.04336216673254967], [-0.002221351722255349, 0.03305019810795784, -0.07458121329545975], [-0.03298070654273033, -0.022521330043673515, -0.050210803747177124]], [[0.006302493158727884, -0.08741109818220139, -0.25493377447128296], [-0.021957052871584892, 0.15333567559719086, 0.026867754757404327], [0.02815231867134571, -0.07259657979011536, 0.13622301816940308]], [[0.041985515505075455, -0.06240329518914223, -0.019024724140763283], [-0.043592847883701324, 0.017219530418515205, 0.018882617354393005], [-0.001070577884092927, -0.017445579171180725, -0.07990863174200058]], [[0.09118708968162537, 0.07326857000589371, 0.13991963863372803], [-0.05656278505921364, -0.05074511840939522, -0.0003311953623779118], [0.1237144023180008, 0.024188799783587456, 0.06753785908222198]], [[-0.09652584046125412, 0.12023741751909256, 0.03442370519042015], [0.001282298006117344, -0.1420777142047882, 0.036001916974782944], [0.14489078521728516, -0.029507150873541832, 0.011331330053508282]], [[0.02723122201859951, 0.023175476118922234, 0.1874154508113861], [0.11663611978292465, -0.08231625705957413, 0.05245574563741684], [-0.03340373560786247, 0.022292718291282654, -0.020999344065785408]], [[0.05396803468465805, -0.04696988686919212, -0.045520853251218796], [-0.04858776181936264, 0.08961088955402374, 0.014215228147804737], [-0.009195920079946518, -0.03531673178076744, 0.051429349929094315]], [[0.0006746728322468698, -0.10705354809761047, 0.12921519577503204], [-0.09149274975061417, -0.09853765368461609, -0.037123724818229675], [0.14803622663021088, -0.005160438362509012, -0.024267973378300667]], [[-0.11942402273416519, 0.11416015774011612, -0.057558611035346985], [-0.018746934831142426, -0.10990802943706512, -0.03273623809218407], [-0.014744258485734463, 0.0739048421382904, -0.10003641247749329]], [[0.08886099606752396, -0.02750948816537857, 0.09565777331590652], [0.14582547545433044, 0.01866944320499897, -0.02290114015340805], [-0.11760665476322174, 0.11562152206897736, 0.04718565195798874]], [[0.08568823337554932, 0.03638879954814911, -0.02499394491314888], [0.0012902739690616727, -0.15735502541065216, -0.028402607887983322], [0.005504321772605181, 0.1043899655342102, 0.13056400418281555]], [[-0.09079860895872116, -0.12969228625297546, -0.0990644097328186], [-0.10236562043428421, 0.28901004791259766, 0.001003878191113472], [-0.02363450452685356, -0.08615279197692871, -0.17842575907707214]], [[-0.004232884384691715, -0.11927571147680283, 0.0541435182094574], [-0.04755069687962532, 0.2449101209640503, -0.01567964069545269], [0.08994772285223007, -0.1653786152601242, 0.10281218588352203]], [[0.05739782378077507, -0.114570252597332, -0.11679548025131226], [-0.07356102764606476, 0.030963126569986343, -0.006782199256122112], [0.043906908482313156, 0.023593252524733543, 0.23889002203941345]], [[0.01688448153436184, 0.1956387758255005, -0.13315936923027039], [-0.13198880851268768, 0.1551058441400528, -0.06454479694366455], [0.08768466860055923, -0.0017846579430624843, 0.06502893567085266]], [[-0.020620765164494514, -0.0984845981001854, -0.07210376113653183], [-0.01261911727488041, 0.018487682566046715, 0.07259445637464523], [0.009097338654100895, 0.03615545853972435, 0.04384921118617058]], [[-0.026260094717144966, 0.0006230424041859806, -0.03876417130231857], [0.022786393761634827, -0.06951944530010223, 0.07370670139789581], [0.04826680198311806, -0.03747236728668213, 0.08551325649023056]], [[0.0502249114215374, 0.06302302330732346, -0.05725504085421562], [-0.03140583634376526, 0.2399299293756485, -0.03950314223766327], [0.03207317367196083, -0.040739756077528, -0.12152640521526337]], [[-0.005351653788238764, 0.21942923963069916, 0.059243571013212204], [0.07099290937185287, -0.14175143837928772, -0.029292237013578415], [0.11937488615512848, 0.038561753928661346, 0.14675304293632507]]], [[[-0.036183830350637436, -0.1091124564409256, -0.04548952355980873], [0.07227220386266708, -0.10425059497356415, -0.07866176217794418], [-0.008075951598584652, 0.04948072507977486, -0.03366250917315483]], [[-0.21643894910812378, -0.19713427126407623, -0.2211110144853592], [0.15135133266448975, 0.047415416687726974, -0.06364528834819794], [0.004801791161298752, -0.0061231390573084354, -0.012508733198046684]], [[-0.16989733278751373, 0.09549688547849655, -0.055072396993637085], [0.08073431998491287, 0.048888806253671646, -0.08616100996732712], [0.003359187627211213, -0.005449380725622177, -0.09316296875476837]], [[0.06496822834014893, 0.06929042935371399, 0.029593782499432564], [0.1436203271150589, 0.2104075849056244, 0.018541863188147545], [-0.009846514090895653, -0.1463831067085266, 0.008637651801109314]], [[-0.07181350886821747, 0.07706250995397568, 0.03136090189218521], [-0.1721712052822113, 0.011471075937151909, 0.12122918665409088], [0.011851083487272263, -0.12154647707939148, -0.02398032695055008]], [[-0.057915542274713516, 0.0009166480740532279, -0.008511299267411232], [0.018091844394803047, 0.06964394450187683, -0.06391648948192596], [-0.015484882518649101, 0.004817676730453968, 0.019734105095267296]], [[0.12562020123004913, 0.18585386872291565, 0.12187551707029343], [-0.022132789716124535, 0.036446183919906616, -0.024605873972177505], [-0.03508303686976433, -0.11020274460315704, 0.01966756395995617]], [[0.03606172278523445, 0.007675952278077602, -0.024851160123944283], [-0.07097925245761871, -0.011892156675457954, 0.025666343048214912], [0.06680599600076675, -0.06768784672021866, 0.051794324070215225]], [[-0.2955721616744995, -0.1099129393696785, 0.006271785125136375], [0.09605362266302109, -0.24226386845111847, -0.0920477882027626], [-0.14439432322978973, 0.1082557663321495, 0.05272843688726425]], [[-0.23236671090126038, -0.19364066421985626, 0.08249752223491669], [-0.08590156584978104, -0.04900757968425751, 0.0011749911354854703], [-0.010939373634755611, -0.1581212431192398, 0.08490464091300964]], [[-0.13488277792930603, -0.1545817106962204, -0.11629655957221985], [0.04483495280146599, -0.06313731521368027, -0.020360523834824562], [0.07386696338653564, -0.004984355065971613, 0.01691507361829281]], [[0.05404537543654442, 0.07501420378684998, 0.005328169092535973], [0.11217382550239563, 0.17327560484409332, -0.022690078243613243], [-0.0010874706786125898, -0.09138035774230957, -0.010397912934422493]], [[0.0020842805970460176, 0.1515538990497589, 0.08895096927881241], [0.2852923572063446, -0.05667482689023018, -0.0364392027258873], [0.051434338092803955, 0.08042513579130173, -0.08134478330612183]], [[0.1487971693277359, 0.06736559420824051, 0.10029268264770508], [-0.07758117467164993, 0.013588856905698776, 0.042441606521606445], [0.049223896116018295, 0.0318736769258976, 0.07106951624155045]], [[-0.17422832548618317, -0.3515807092189789, -0.27687308192253113], [-0.028970051556825638, -0.008241565898060799, 0.055631618946790695], [-0.0050024306401610374, 0.0699223056435585, 0.03531529754400253]], [[-0.04041146859526634, -0.089166559278965, -0.03457365185022354], [0.11903417855501175, 0.023795489221811295, -0.11106464266777039], [-0.021187257021665573, 0.05015632510185242, 0.07645448297262192]], [[0.1323651224374771, 0.26458701491355896, 0.07475238293409348], [-0.3326708972454071, -0.1689407080411911, 0.006537092383950949], [0.07050182670354843, -0.1307472288608551, -0.09481481462717056]], [[-0.16201922297477722, 0.1157379075884819, -0.0012992533156648278], [-0.13496103882789612, -0.09038179367780685, -0.0046523562632501125], [-0.03621401637792587, -0.08135530352592468, -0.006332500372081995]], [[-0.06547199934720993, -0.044816162437200546, 0.1008443832397461], [0.11753568798303604, -0.16652493178844452, -0.13712811470031738], [0.0045354911126196384, 0.04097454249858856, 0.14724639058113098]], [[-0.3050059378147125, -0.03987623378634453, -0.09954340010881424], [0.007017657160758972, -0.04366719722747803, -0.08958981931209564], [-0.02504599466919899, -0.1295468509197235, 0.06219886615872383]], [[0.025095701217651367, 0.09018269181251526, 0.09864790737628937], [0.05237571895122528, -0.08280692994594574, -0.07481805980205536], [0.018129631876945496, 0.058285124599933624, -0.03014766238629818]], [[0.12580899894237518, 0.08976076543331146, 0.0780271515250206], [0.04282376170158386, -0.005179968196898699, 0.06849360466003418], [-0.028232000768184662, -0.03408220037817955, 0.014731778763234615]], [[0.013993377797305584, -0.018468977883458138, -0.08445347100496292], [-0.09422291815280914, 0.06421567499637604, 0.03781173378229141], [0.004281638655811548, -0.13120372593402863, 0.023414846509695053]], [[-0.1373167634010315, -0.24151700735092163, -0.06924235820770264], [0.2743551433086395, 0.2872928977012634, -0.01759960502386093], [-0.06774470955133438, -0.03877481445670128, 0.10192340612411499]]], [[[0.05572499707341194, 0.016438502818346024, -0.03351840376853943], [0.049503933638334274, -0.007366046775132418, 0.03232410177588463], [-0.012913397513329983, -0.041296519339084625, 0.03995446860790253]], [[0.05255267769098282, 0.04870624095201492, 0.03302064538002014], [-0.11455995589494705, 0.09204176068305969, -0.015162245370447636], [-0.03654086962342262, -0.06460881978273392, -0.00931064784526825]], [[-0.06518910825252533, -0.004343034233897924, 0.00733393058180809], [0.044639959931373596, 0.07896680384874344, -0.033273350447416306], [0.1471722573041916, 0.010935655795037746, 0.16046464443206787]], [[-0.07837467640638351, -0.17321345210075378, 0.06478836387395859], [0.017380977049469948, 0.08744844794273376, -0.021233471110463142], [0.20464357733726501, 0.060773469507694244, 0.008407860063016415]], [[0.07540258020162582, -0.04980386421084404, -0.08969640731811523], [0.026151513680815697, 0.22335730493068695, 0.0851246640086174], [0.07621846348047256, 0.030066365376114845, 0.029871460050344467]], [[-0.06263942271471024, -0.08067227900028229, 0.04806641489267349], [0.0031831758096814156, -0.10747627913951874, 0.015027330256998539], [0.09434507042169571, -0.00993057806044817, 0.09213819354772568]], [[0.0396527498960495, -0.08968304842710495, 0.036320969462394714], [0.07023980468511581, 0.18539947271347046, 0.05082176625728607], [0.053068242967128754, -0.0059148031286895275, 0.06819809973239899]], [[0.00904008373618126, -0.05060113966464996, 0.00711864186450839], [0.006836009211838245, 0.03164486959576607, -0.037801120430231094], [0.014680440537631512, -0.10271971672773361, -0.07220367342233658]], [[-0.13358551263809204, 0.1839614063501358, 0.07355839014053345], [-0.048089683055877686, 0.07148776948451996, 0.08904799073934555], [-0.3272533118724823, 0.0024634150322526693, 0.062445804476737976]], [[-0.1469118297100067, 0.020966194570064545, -0.060802072286605835], [0.08220281451940536, -0.13638386130332947, 0.07881666719913483], [0.02209114097058773, 0.03533391281962395, -0.06178116425871849]], [[0.019815897569060326, -0.03839489445090294, -0.02651326172053814], [-0.02135658450424671, -0.19462625682353973, -0.05536079779267311], [-0.07311198860406876, -0.000982672325335443, 0.053952913731336594]], [[0.07502424716949463, -0.1294924020767212, -0.018999550491571426], [-0.09039385616779327, 0.1033380776643753, 0.02276763692498207], [0.013081677258014679, -0.006412762217223644, -0.0448458231985569]], [[-0.05011351406574249, 0.0635855570435524, -0.03938881307840347], [-0.10422015190124512, 0.023610033094882965, 0.04673002287745476], [-0.07197770476341248, -0.025822026655077934, -0.0761527493596077]], [[-0.044934339821338654, -0.046111810952425, 0.03577905520796776], [0.1131122037768364, -0.13414664566516876, 0.05627083033323288], [0.08590700477361679, 0.002251874888315797, 0.0965782031416893]], [[0.05556570366024971, -0.05788443982601166, 0.023132294416427612], [-0.10499509423971176, -0.1777273565530777, -0.130083829164505], [0.09107300639152527, 0.00787618663161993, -0.007418337278068066]], [[0.004009385127574205, 0.01720135658979416, -0.036478351801633835], [-0.05079649016261101, -0.16376341879367828, 0.08324506133794785], [0.005053617525845766, -0.09218252450227737, -0.10841163992881775]], [[-0.008140633814036846, -0.1933990716934204, -0.04506262391805649], [-0.012164349667727947, 0.29250311851501465, -0.08614086359739304], [8.965117012849078e-05, -0.20708249509334564, -0.00968134868890047]], [[0.04134306311607361, -0.1567613184452057, 0.06650442630052567], [-0.10391891747713089, 0.39232659339904785, -0.04060456156730652], [0.03544142097234726, -0.03553115203976631, -0.003408831311389804]], [[0.06520542502403259, -0.11396078020334244, 0.0004816015425603837], [0.045668650418519974, 0.0043753404170274734, 0.037717726081609726], [-0.10464617609977722, -0.1790473908185959, 0.0050420803017914295]], [[-5.5053053074516356e-05, -0.09035433828830719, -0.028043188154697418], [0.035019733011722565, 0.20745299756526947, -0.06184471398591995], [0.035805512219667435, -0.0718236118555069, 0.18368688225746155]], [[-0.04732867330312729, 0.01762966997921467, -0.08379732072353363], [0.042802780866622925, -0.08293230831623077, -0.00047336294665001333], [-0.037516698241233826, -0.06696583330631256, -0.056489765644073486]], [[-0.03633807599544525, 0.039026375859975815, -0.05194401368498802], [-0.00271237432025373, -0.01894374191761017, 0.07174498587846756], [-0.016796013340353966, 0.0006273715989664197, -0.09128396958112717]], [[0.06336363404989243, -0.051893200725317, 0.03673239052295685], [-0.13527685403823853, 0.15542319416999817, -0.10335493087768555], [0.06391317397356033, 0.05790053680539131, 0.06543081253767014]], [[-0.039590638130903244, 0.14093641936779022, 0.09879457205533981], [-0.0035761529579758644, -0.18442532420158386, 0.025192102417349815], [0.0754539892077446, 0.24350899457931519, -0.07016152143478394]]], [[[0.0599011667072773, -0.030050551518797874, -0.08117678761482239], [-0.036610521376132965, -0.04823309928178787, 0.0692545622587204], [-0.031977903097867966, -0.08883319795131683, -0.0765814334154129]], [[-0.015220493078231812, -0.0907500609755516, 0.008801196701824665], [0.04781486839056015, 0.033895865082740784, 0.15266558527946472], [0.16935911774635315, 0.0914737805724144, -0.058609895408153534]], [[0.09603811800479889, -0.09782250970602036, -0.19585634768009186], [0.10716308653354645, -0.07533607631921768, 0.08053015917539597], [0.02319696918129921, 0.06486403197050095, -0.06606606394052505]], [[0.06774687767028809, -0.039139408618211746, 0.020189419388771057], [-0.03468644991517067, 0.03657393157482147, -0.021927522495388985], [-0.16345317661762238, -0.016365066170692444, -0.14426812529563904]], [[0.11554760485887527, 0.20977619290351868, 0.05320703983306885], [0.005144251044839621, -0.03676762804389, -0.0016917444299906492], [0.10301956534385681, 0.014739985577762127, 0.11524234712123871]], [[0.08224652707576752, -0.04730294644832611, 0.027141325175762177], [-0.03230610117316246, 0.0412808321416378, 0.06840316206216812], [-0.0036497467663139105, -0.053311798721551895, -0.05555960536003113]], [[0.0875551700592041, -0.009566016495227814, 0.0005145383765920997], [-0.004514537286013365, -0.09918976575136185, 0.12612590193748474], [-0.029495202004909515, 0.1584015190601349, -0.11137019097805023]], [[0.007904659025371075, 0.05350292846560478, -0.010446601547300816], [-0.003781463485211134, -0.01528693176805973, -0.034425411373376846], [-0.020554054528474808, 0.0852152407169342, -0.02092292159795761]], [[-0.06768931448459625, 0.15010133385658264, -0.3013392686843872], [0.0836503729224205, -0.09530700743198395, 0.18785054981708527], [-0.00047547949361614883, -0.029918601736426353, -0.12084934115409851]], [[0.053251054137945175, 0.026814179494976997, 0.0932316854596138], [0.059856392443180084, -0.0033706368412822485, 0.024268869310617447], [-0.032646242529153824, -0.03770741447806358, -0.023539721965789795]], [[-0.03038397617638111, 0.0492866076529026, -0.026820018887519836], [0.11811576038599014, -0.035369619727134705, 0.07145294547080994], [0.03649609535932541, -0.034726377576589584, 0.06407300382852554]], [[0.042629826813936234, 0.02710137516260147, -0.02353818342089653], [0.06996646523475647, 0.04309112951159477, 0.06517729163169861], [0.04941031336784363, 0.07449613511562347, 0.040401391685009]], [[-0.0656016543507576, 0.07288604229688644, -0.27680450677871704], [0.05553489550948143, -0.14699043333530426, 0.15540216863155365], [-0.06016772240400314, -0.047846294939517975, 0.049566082656383514]], [[0.10575518757104874, -0.059292588382959366, 0.06418976932764053], [-0.017329081892967224, 0.03949065878987312, -0.01126012485474348], [-0.04624071717262268, 0.016302956268191338, -0.14209294319152832]], [[-0.12028858810663223, 0.046577088534832, 0.15266843140125275], [-0.0637446716427803, 0.10819448530673981, -0.16962796449661255], [-0.054992444813251495, 0.047026462852954865, 0.08645083755254745]], [[0.06102848798036575, -0.0993293970823288, 0.0676974430680275], [0.14568060636520386, -0.07652494311332703, 0.12511810660362244], [0.03276953101158142, 0.06359054148197174, -0.04114478453993797]], [[0.018455732613801956, -0.08342321962118149, -0.025780223309993744], [-0.019132474437355995, -0.10323688387870789, 0.020092153921723366], [-0.027539638802409172, 0.09008866548538208, -0.10602257400751114]], [[0.02831948734819889, 0.20257313549518585, -0.01065177470445633], [-0.019883345812559128, -0.15266673266887665, 0.11278625577688217], [0.06598201394081116, 0.08202151954174042, -0.12085700035095215]], [[0.035232797265052795, -0.04538414999842644, -0.09805720299482346], [0.029581740498542786, -0.09911656379699707, 0.18394310772418976], [-0.10190611332654953, -0.024938402697443962, -0.16907131671905518]], [[0.00675744516775012, -0.04705553501844406, -0.05733269825577736], [0.14740701019763947, -0.0369657538831234, 0.19551323354244232], [0.04103254899382591, 0.21800248324871063, -0.13974542915821075]], [[0.038529179990291595, -0.005437517073005438, -0.03920791298151016], [0.023036550730466843, -0.031183408573269844, 0.05985761061310768], [-0.025762217119336128, 0.013331745751202106, -0.05749157443642616]], [[-0.040961798280477524, -0.008562472648918629, 0.10471693426370621], [-0.09798510372638702, -0.063682921230793, -0.02423103153705597], [-0.09028303623199463, 0.03233969956636429, 0.04463188722729683]], [[-0.010371227748692036, -0.07033175230026245, 0.14992797374725342], [-0.03030681610107422, 0.003370863851159811, -0.024339284747838974], [0.06884689629077911, 0.06845361739397049, 0.001480663544498384]], [[-0.014432854019105434, 0.10838691145181656, 0.04265138879418373], [0.17095798254013062, 0.13593728840351105, 0.008508569560945034], [0.17376555502414703, 0.018958119675517082, 0.11028402298688889]]], [[[0.08962210267782211, -0.01670841872692108, -0.08094651252031326], [-0.06220472604036331, -0.03288716822862625, 0.040446337312459946], [0.020706258714199066, 0.05258796364068985, -0.08187802881002426]], [[-0.03649384155869484, -0.0732273980975151, -0.010602620430290699], [-0.002962355734780431, 0.03630805388092995, -0.027412958443164825], [0.14468954503536224, 0.020482400432229042, 0.13122262060642242]], [[0.05980169400572777, -0.24833069741725922, -0.029396574944257736], [-0.31598836183547974, 0.15375444293022156, 0.10753262042999268], [0.0711432546377182, 0.10528124123811722, 0.0004825088253710419]], [[0.09000703692436218, -0.21915143728256226, -0.04350172355771065], [0.048812203109264374, 0.20463456213474274, -0.04861282929778099], [0.07725547254085541, 0.10255346447229385, 0.20433391630649567]], [[-0.026057595387101173, 0.1282658874988556, -0.04244709759950638], [-0.03001696988940239, -0.03171275183558464, 0.009719307534396648], [0.045208584517240524, -0.1524667590856552, -0.0665317177772522]], [[-0.03289083018898964, -0.030593575909733772, -0.022065280005335808], [0.010643485002219677, 0.013683751225471497, 0.04679645225405693], [0.019558321684598923, 0.0033008051104843616, 0.029464907944202423]], [[-0.24275730550289154, -0.041006993502378464, 0.0872843861579895], [0.0599074549973011, 0.21343882381916046, -0.06099401041865349], [0.07191233336925507, -0.1062099039554596, 0.016582591459155083]], [[0.07186775654554367, 0.061811093240976334, -0.0066361273638904095], [0.0506514236330986, 0.016360530629754066, -0.02719440683722496], [-0.07988876104354858, -0.023700013756752014, -0.05848662555217743]], [[0.19460353255271912, -0.07076361775398254, -0.16266344487667084], [-0.13301272690296173, -0.11691747605800629, 0.019468285143375397], [0.2257089912891388, -0.049568165093660355, -0.06628952920436859]], [[0.1565404087305069, 0.0713680312037468, -0.06920838356018066], [-0.19517111778259277, -0.10182676464319229, 0.03988620638847351], [-0.06395521014928818, -0.05263771489262581, -0.08935531973838806]], [[0.035840027034282684, 0.006232134532183409, -0.07652192562818527], [-0.07080286741256714, -0.002629650756716728, 0.012416146695613861], [0.11322519183158875, 0.016309823840856552, 0.02775127999484539]], [[-0.09868974983692169, -0.03153441101312637, 0.0325998030602932], [0.05266252160072327, 0.08220642060041428, -0.023125266656279564], [0.025817692279815674, 0.0663360059261322, 0.10787000507116318]], [[-0.04799312725663185, -0.054974887520074844, -0.039142921566963196], [0.003164858091622591, -0.013442352414131165, -0.029634224250912666], [0.20550537109375, 0.03599837049841881, 0.09685021638870239]], [[0.01936919614672661, -0.06606845557689667, 0.031109489500522614], [-0.07739045470952988, 0.09342769533395767, 0.1263798326253891], [-0.05018666759133339, 0.028427572920918465, -0.1487616002559662]], [[0.03159995749592781, 0.1329517513513565, 0.04615938290953636], [0.12658369541168213, -0.1596977561712265, -0.09929311275482178], [-0.0262801144272089, 0.1440529078245163, 0.07763766497373581]], [[-0.2486758679151535, -0.032851580530405045, -0.001438928535208106], [-0.07829418778419495, 0.19202838838100433, 0.04412493854761124], [0.23617641627788544, 0.12960003316402435, 0.0017003986285999417]], [[-0.05961361154913902, 0.010708369314670563, 0.12160499393939972], [0.043068431317806244, 0.19648697972297668, -0.1479489952325821], [-0.13061752915382385, -0.32694053649902344, -0.11470500379800797]], [[0.06486047804355621, -0.0314142070710659, 0.0969591811299324], [-0.010480501689016819, -0.024898765608668327, -0.05786886438727379], [0.057900477200746536, -0.17050082981586456, 0.03968418389558792]], [[-0.08949705213308334, -0.09696391969919205, 0.1072365865111351], [-0.03927228972315788, 0.19581471383571625, -0.07824771851301193], [0.14581337571144104, -0.09107226878404617, -0.08987366408109665]], [[-0.062126774340867996, 0.005800105165690184, 0.06253733485937119], [-0.16250163316726685, 0.1604084074497223, -0.03363474830985069], [0.09689271450042725, -0.11014968901872635, 0.020871726796030998]], [[-0.09558309614658356, -0.004304601810872555, 0.010903747752308846], [0.042747363448143005, -0.004513233434408903, 0.0014163525775074959], [0.06148697808384895, -0.042487725615501404, -0.04653828218579292]], [[-0.008130207657814026, 0.03038693405687809, 0.05261591076850891], [0.02211693674325943, -0.0039036639500409365, -0.060897096991539], [0.051637422293424606, -0.016182860359549522, -0.06462304294109344]], [[0.007309440523386002, 0.02552868239581585, 0.017812609672546387], [0.10371030867099762, -0.03537125885486603, -0.1554495394229889], [-0.12095965445041656, -0.11673862487077713, 0.054025448858737946]], [[0.10086674988269806, 0.0010465537197887897, -0.02613893523812294], [-0.1293424665927887, -0.14098554849624634, -0.007257989142090082], [0.16019761562347412, 0.31633472442626953, 0.18349823355674744]]], [[[-0.005158137995749712, -0.031279560178518295, 0.05588679388165474], [-0.0032298797741532326, 0.06505809724330902, 0.05058399960398674], [-0.005555651616305113, 0.08595176041126251, -0.011638685129582882]], [[-0.06769111752510071, -0.10746843367815018, -0.15253189206123352], [0.08193943649530411, 0.043564897030591965, 0.1517181247472763], [-0.04971635714173317, -0.11158809810876846, -0.06269930303096771]], [[-0.13719727098941803, 0.0690239891409874, -0.19339986145496368], [-0.004625522065907717, 0.06375715136528015, 0.136818990111351], [-0.20665939152240753, -0.01725568063557148, 0.002999301766976714]], [[0.15873347222805023, 0.03408709913492203, 0.0035303779877722263], [0.030887167900800705, -0.011423519812524319, -0.05222505331039429], [-0.03309948742389679, -0.16982124745845795, -0.06335066258907318]], [[0.014790205284953117, 0.09375599026679993, 0.018669981509447098], [-0.09341449290513992, -0.112946055829525, 0.03259080648422241], [0.010595758445560932, -0.004933345131576061, -0.0505484975874424]], [[0.021901143714785576, 0.034207332879304886, -0.009163069538772106], [0.007698977831751108, -0.01796729862689972, -0.02500196173787117], [-0.07663523405790329, -0.016690025106072426, 0.03252660110592842]], [[-0.15513336658477783, 0.07150961458683014, 0.05698643997311592], [-0.1199544295668602, -0.13070395588874817, 0.039785418659448624], [-0.049018651247024536, 0.006204954814165831, 0.03720104321837425]], [[0.027554575353860855, 0.015490525402128696, -0.009049858897924423], [0.02192331664264202, -0.051608309149742126, -0.01544603705406189], [0.0319397933781147, 0.09635315090417862, -0.009201308712363243]], [[-0.12313055992126465, -0.1262180358171463, -0.14463414251804352], [0.14136065542697906, 0.004342366475611925, 0.13547275960445404], [-0.12065918743610382, -0.06042538955807686, 0.10469186305999756]], [[-0.017088307067751884, -0.037226200103759766, -0.05590122565627098], [0.0052467770874500275, -0.010680384002625942, -0.02426226995885372], [-0.09755469858646393, 0.012360324151813984, -0.032909899950027466]], [[-0.04175880551338196, -0.06567446887493134, -0.050583209842443466], [0.08789071440696716, 0.1746508926153183, 0.1068832129240036], [-0.05878780409693718, 0.07264064997434616, -0.004208387341350317]], [[-0.08704561740159988, 0.04534143954515457, -0.03927368298172951], [-0.05339838191866875, 0.01134813018143177, -0.02251903899013996], [-0.06299920380115509, -0.06430071592330933, -0.1466377079486847]], [[0.0035967121366411448, 0.030869124457240105, -0.0839853584766388], [0.03440948203206062, 0.04274063929915428, 0.056984733790159225], [-0.19799911975860596, 0.11245227605104446, -0.07736974954605103]], [[0.06474491208791733, 0.10068993270397186, 0.02198370359838009], [0.05586669594049454, 0.03528193384408951, -0.10599751025438309], [0.03105558641254902, 0.04929879307746887, 0.055306341499090195]], [[0.0963454395532608, -0.07269585132598877, -0.07197937369346619], [0.08176436275243759, 0.06780360639095306, -0.06075271964073181], [0.006879293825477362, -0.13510969281196594, -0.1334105134010315]], [[-0.01741236262023449, -0.02833634801208973, 0.06081881374120712], [0.04516731575131416, 0.11782065778970718, -0.041437190026044846], [-0.07407519966363907, -0.09278891980648041, -0.11024045199155807]], [[-0.06984174251556396, 0.12154370546340942, 0.0825558602809906], [-0.10064337402582169, -0.26614847779273987, -0.01912621594965458], [0.09374189376831055, 0.2811345160007477, 0.23188428580760956]], [[0.001683413633145392, 0.06809429079294205, -0.052900467067956924], [-0.030412836000323296, -0.1758318841457367, -0.008337952196598053], [0.03426283970475197, 0.0801033303141594, 0.09117709845304489]], [[0.09161362051963806, 0.05898260697722435, 0.08032157272100449], [0.021947359666228294, -0.034374307841062546, -0.0625196173787117], [0.010112948715686798, -0.08317892253398895, -0.11171036213636398]], [[-0.15875113010406494, -0.07762692868709564, -0.04150278866291046], [-0.017024533823132515, -0.04784668982028961, -0.032994285225868225], [-0.020864224061369896, 0.015974117442965508, 0.028836941346526146]], [[0.07007618993520737, 0.036005839705467224, 0.017830515280365944], [-0.02925928123295307, 0.04018492251634598, -0.03468262404203415], [-0.07331649959087372, 0.027763606980443, -0.04663512855768204]], [[0.06989459693431854, -0.01666971854865551, 0.04252006858587265], [-0.01710008643567562, -0.05034235492348671, -0.06009633094072342], [-0.010974971577525139, -0.0005530738853849471, -0.02645544707775116]], [[-0.06446477025747299, -0.036047715693712234, -0.07910949736833572], [-0.10674575716257095, -0.07506080716848373, 0.052647002041339874], [-0.06289097666740417, -0.036372482776641846, 0.06398394703865051]], [[0.007572375703603029, -0.14013276994228363, -0.08083971589803696], [0.09914222359657288, 0.18003717064857483, 0.10954174399375916], [-0.18279993534088135, -0.2681087851524353, -0.16343705356121063]]], [[[0.02135099470615387, -0.025306271389126778, 0.05188068002462387], [0.031185386702418327, 0.10152074694633484, 0.03832244873046875], [0.02294565550982952, -0.04012985900044441, 0.015237991698086262]], [[0.031357262283563614, -0.13954704999923706, 0.04595470055937767], [-0.06476835906505585, 0.16248151659965515, -0.014235935173928738], [0.03070845827460289, -0.124099001288414, 0.16378404200077057]], [[0.12771838903427124, -0.09351424872875214, 0.19910787045955658], [0.06406433880329132, 0.260981023311615, 0.16206705570220947], [-0.010609189048409462, -0.005392886232584715, 0.08431654423475266]], [[0.08178456872701645, -0.06834949553012848, 0.1782982349395752], [-0.05413498729467392, -0.27211886644363403, -0.06504957377910614], [0.03787149488925934, -0.028397854417562485, -0.10758282989263535]], [[0.009727193042635918, 0.08114650100469589, -0.07501951605081558], [-0.042766790837049484, 0.0918714627623558, -0.13478492200374603], [-0.025405194610357285, 0.14328891038894653, -0.15396162867546082]], [[-0.026249490678310394, -0.03528154268860817, 0.062341105192899704], [-0.04319699481129646, 0.040323756635189056, 0.14212477207183838], [0.016981782391667366, 0.011207390576601028, 0.03642597794532776]], [[-0.03573589026927948, 0.09779637306928635, 0.004374425858259201], [0.04131705313920975, 0.20031115412712097, -0.2821999192237854], [0.05483265593647957, -0.0033298544585704803, -0.04027801752090454]], [[0.017919059842824936, -0.032529912889003754, 0.00237866910174489], [-0.048373665660619736, -0.03523199260234833, -0.04987739026546478], [-0.04256615415215492, 0.0441419817507267, 0.11327622830867767]], [[0.07693355530500412, -0.17064307630062103, -0.1841222494840622], [-0.03148198500275612, 0.20131883025169373, -0.08505334705114365], [0.11936192214488983, -0.08757226169109344, 0.04747152701020241]], [[0.10334291309118271, -0.01426444761455059, -0.043660156428813934], [-0.018937893211841583, 0.11173269152641296, -0.04912779852747917], [-0.026894010603427887, 0.1290607750415802, -0.06365978717803955]], [[0.0038512723986059427, 0.05931592732667923, 0.08006776124238968], [0.06380254030227661, 0.41011616587638855, 0.3717326819896698], [-0.025456935167312622, 0.03637394309043884, 0.11907172203063965]], [[0.0039528049528598785, -0.0416269414126873, 0.023080866783857346], [-0.04107970744371414, 0.09845571964979172, 0.007102200295776129], [0.04095319285988808, 0.03183119744062424, 0.05266963690519333]], [[0.03654884919524193, -0.07695479691028595, 0.2299717515707016], [-0.11795582622289658, 0.35346922278404236, 0.09126060456037521], [0.038911715149879456, -0.14609871804714203, 0.1803227812051773]], [[0.019517170265316963, -0.08470292389392853, -0.03343447670340538], [-0.042210932821035385, -0.11052650958299637, 0.12513454258441925], [-0.04751312732696533, 0.10443360358476639, -0.07879216969013214]], [[0.016415731981396675, -0.022204460576176643, -0.09231282025575638], [-0.0038157934322953224, -0.3186678886413574, 0.12204417586326599], [-0.009536603465676308, -0.07567396759986877, 0.043963801115751266]], [[-0.035599902272224426, 0.04537604749202728, 0.17627079784870148], [0.07352344691753387, 0.37912237644195557, 0.29408031702041626], [0.07814336568117142, -0.038265638053417206, 0.024654734879732132]], [[0.03893355652689934, -0.02482476830482483, 0.08026144653558731], [0.07425672560930252, -0.1410212367773056, -0.42493876814842224], [0.05722835287451744, 0.0903066024184227, 0.16420245170593262]], [[0.06036420539021492, -0.09420168399810791, -0.006776158232241869], [-0.012933149002492428, 0.07641462981700897, -0.3511700928211212], [0.07895686477422714, 0.10023923218250275, -0.04479515925049782]], [[0.07829435914754868, -0.06623677164316177, 0.06575208157300949], [-0.07273191958665848, 0.2770833373069763, -0.2613351345062256], [0.09228832274675369, -0.15498416125774384, 0.10153854638338089]], [[0.06214972212910652, -0.09506841003894806, 0.12128035724163055], [0.10683564841747284, 0.19417718052864075, -0.09770753979682922], [-0.0800708532333374, 0.1447308361530304, -0.03763442859053612]], [[-0.01668628491461277, 0.032874129712581635, 0.06617642194032669], [0.03332455828785896, 0.11063181608915329, 0.04240895435214043], [0.03505066782236099, -0.02860170416533947, -0.01569969765841961]], [[0.01914283260703087, -0.024803586304187775, 0.02594863623380661], [-0.037260182201862335, -0.13130226731300354, -0.09371019154787064], [-0.003773920703679323, 0.008723978884518147, -0.05260486155748367]], [[-0.0046040755696594715, -0.013945633545517921, -0.07822831720113754], [-0.008595849387347698, -0.08384895324707031, -0.08179794251918793], [0.01084726769477129, -0.016351398080587387, 0.021162474527955055]], [[-0.06010834872722626, -0.027275316417217255, -0.05264223366975784], [0.06520271301269531, 0.3472459018230438, 0.18464145064353943], [0.017856253311038017, -0.0018333436455577612, -0.09272937476634979]]], [[[0.09509051591157913, 0.020435700193047523, -0.035887982696294785], [-0.03661007434129715, 0.04513484612107277, 0.013108614832162857], [-0.05302602797746658, 0.01668556220829487, 0.05618571490049362]], [[-0.1793716847896576, 0.01599908247590065, -0.17504465579986572], [0.06899930536746979, -0.02754468470811844, 0.05036583170294762], [-0.014858533628284931, 0.042867694050073624, -0.029793640598654747]], [[-0.12411303073167801, -0.01905273087322712, 0.042688366025686264], [0.07039310783147812, 0.14346963167190552, 0.03856106102466583], [0.14061570167541504, 0.09305983781814575, 0.0011689437087625265]], [[-0.2257722169160843, 0.06901489198207855, 0.1006268784403801], [-0.21877379715442657, -0.03393818438053131, -0.09918716549873352], [0.03672733157873154, -0.03840329125523567, -0.06063428893685341]], [[0.2273583561182022, -0.042808741331100464, -0.004288095515221357], [0.33972790837287903, -0.14535287022590637, 0.014033757150173187], [0.19888034462928772, -0.0091807646676898, -0.032768614590168]], [[-0.055168915539979935, -0.07338231056928635, -0.03840762749314308], [-0.0287138931453228, 0.05954940244555473, 0.07051476836204529], [-0.011110850609838963, -0.05622405931353569, 0.03923400491476059]], [[0.11281989514827728, 0.1628497838973999, -0.0628434494137764], [0.2962827682495117, -0.027194064110517502, 0.02798050455749035], [0.15411412715911865, -0.07309861481189728, -0.022285480052232742]], [[0.00059598742518574, 0.09171335399150848, -0.013490691781044006], [0.012394491583108902, -0.08041565865278244, -0.057568538933992386], [-0.022235648706555367, 0.04303377494215965, -0.01654805988073349]], [[-0.10199768841266632, -0.11856907606124878, 0.026167284697294235], [0.03149281069636345, 0.025579551234841347, -0.05767654627561569], [0.013535347767174244,